net.p1.0.conv.conv_fuse.weight,net.p2.0.conv.conv_fuse.weight,net.p2.1.conv1.conv.conv_fuse.weight,net.p2.1.conv2.conv.conv_fuse.weight,net.p2.1.res_m.0.conv1.conv.conv_fuse.weight,net.p2.1.res_m.0.conv2.conv.conv_fuse.weight,net.p3.0.conv.conv_fuse.weight,net.p3.1.conv1.conv.conv_fuse.weight,net.p3.1.conv2.conv.conv_fuse.weight,net.p3.1.res_m.0.conv1.conv.conv_fuse.weight,net.p3.1.res_m.0.conv2.conv.conv_fuse.weight,net.p3.1.res_m.1.conv1.conv.conv_fuse.weight,net.p3.1.res_m.1.conv2.conv.conv_fuse.weight,net.p4.0.conv.conv_fuse.weight,net.p4.1.conv1.conv.conv_fuse.weight,net.p4.1.conv2.conv.conv_fuse.weight,net.p4.1.res_m.0.conv1.conv.conv_fuse.weight,net.p4.1.res_m.0.conv2.conv.conv_fuse.weight,net.p4.1.res_m.1.conv1.conv.conv_fuse.weight,net.p4.1.res_m.1.conv2.conv.conv_fuse.weight,net.p5.0.conv.conv_fuse.weight,net.p5.1.conv1.conv.conv_fuse.weight,net.p5.1.conv2.conv.conv_fuse.weight,net.p5.1.res_m.0.conv1.conv.conv_fuse.weight,net.p5.1.res_m.0.conv2.conv.conv_fuse.weight,net.p5.2.conv1.conv.conv_fuse.weight,net.p5.2.conv2.conv.conv_fuse.weight,fpn.h1.conv1.conv.conv_fuse.weight,fpn.h1.conv2.conv.conv_fuse.weight,fpn.h1.res_m.0.conv1.conv.conv_fuse.weight,fpn.h1.res_m.0.conv2.conv.conv_fuse.weight,fpn.h2.conv1.conv.conv_fuse.weight,fpn.h2.conv2.conv.conv_fuse.weight,fpn.h2.res_m.0.conv1.conv.conv_fuse.weight,fpn.h2.res_m.0.conv2.conv.conv_fuse.weight,fpn.h3.conv.conv_fuse.weight,fpn.h4.conv1.conv.conv_fuse.weight,fpn.h4.conv2.conv.conv_fuse.weight,fpn.h4.res_m.0.conv1.conv.conv_fuse.weight,fpn.h4.res_m.0.conv2.conv.conv_fuse.weight,fpn.h5.conv.conv_fuse.weight,fpn.h6.conv1.conv.conv_fuse.weight,fpn.h6.conv2.conv.conv_fuse.weight,fpn.h6.res_m.0.conv1.conv.conv_fuse.weight,fpn.h6.res_m.0.conv2.conv.conv_fuse.weight,head.box.0.0.conv.conv_fuse.weight,head.box.0.1.conv.conv_fuse.weight,head.box.0.2.weight,head.box.1.0.conv.conv_fuse.weight,head.box.1.1.conv.conv_fuse.weight,head.box.1.2.weight,head.box.2.0.conv.conv_fuse.weight,head.box.2.1.conv.conv_fuse.weight,head.box.2.2.weight,head.cls.0.0.conv.conv_fuse.weight,head.cls.0.1.conv.conv_fuse.weight,head.cls.0.2.weight,head.cls.1.0.conv.conv_fuse.weight,head.cls.1.1.conv.conv_fuse.weight,head.cls.1.2.weight,head.cls.2.0.conv.conv_fuse.weight,head.cls.2.1.conv.conv_fuse.weight,head.cls.2.2.weight
4.442281246185303,0.014842200092971325,-0.0038979658856987953,0.06555324047803879,-0.09723499417304993,-0.023697154596447945,0.0011064582504332066,0.43420013785362244,-0.1708928346633911,-0.06274524331092834,-0.14603962004184723,0.007766328752040863,-0.1888396441936493,0.0,0.10749112814664841,-0.031149346381425858,0.10749032348394394,0.06013382598757744,0.0022505568340420723,-0.005106690805405378,0.0,-0.1354990452528,0.030910251662135124,0.0,0.11454683542251587,-0.006137378979474306,0.0980156660079956,-0.13684116303920746,0.0949530377984047,0.0,0.021764930337667465,0.07730016112327576,-0.30892640352249146,0.04342934489250183,0.0800568237900734,-0.012321333400905132,-0.02052975259721279,-0.005836427211761475,0.0,-0.01445387676358223,0.0079480716958642,0.0175028033554554,0.0,0.0,-0.01915362849831581,-0.04517724737524986,0.004198862239718437,0.1752343624830246,0.0,0.0,-0.04148010164499283,0.011898341588675976,-0.011378327384591103,0.000555585662368685,0.0,0.027525214478373528,-0.05665319785475731,0.0,-0.13098891079425812,0.021905915811657906,0.008160299621522427,0.29093119502067566,0.06440648436546326
4.442281246185303,0.014842200092971325,-0.0038979658856987953,0.06555324047803879,-0.09723499417304993,-0.023697154596447945,0.0011064582504332066,0.43420013785362244,-0.1708928346633911,-0.06274524331092834,-0.14603962004184723,0.007766328752040863,-0.1888396441936493,0.0,0.10749112814664841,-0.031149346381425858,0.10749032348394394,0.06013382598757744,0.0022505568340420723,-0.005106690805405378,0.0,-0.1354990452528,0.030910251662135124,0.0,0.11454683542251587,-0.006137378979474306,0.0980156660079956,-0.13684116303920746,0.0949530377984047,0.0,0.021764930337667465,0.07730016112327576,-0.30892640352249146,0.04342934489250183,0.0800568237900734,-0.012321333400905132,-0.02052975259721279,-0.005836427211761475,0.0,-0.01445387676358223,0.0079480716958642,0.0175028033554554,0.0,0.0,-0.01915362849831581,-0.04517724737524986,0.004198862239718437,0.1752343624830246,0.0,0.0,-0.04148010164499283,0.011898341588675976,-0.011378327384591103,0.000555585662368685,0.0,0.027525214478373528,-0.05665319785475731,0.0,-0.13098891079425812,0.021905915811657906,0.008160299621522427,0.29093119502067566,0.06440648436546326
4.442281246185303,0.014842200092971325,-0.0038979649543762207,0.06555324047803879,-0.09723499417304993,-0.023697154596447945,0.001106457901187241,0.43420013785362244,-0.1708928346633911,-0.06274524331092834,-0.14603962004184723,0.007766326889395714,-0.1888396441936493,0.0,0.10749112814664841,-0.031149346381425858,0.10749032348394394,0.06013382598757744,0.0022505568340420723,-0.005106690805405378,0.0,-0.1354990452528,0.030910251662135124,0.0,0.11454683542251587,-0.006137378979474306,0.0980156660079956,-0.13684116303920746,0.0949530377984047,0.0,0.021764930337667465,0.07730016112327576,-0.30892640352249146,0.043429333716630936,0.0800568237900734,-0.012321332469582558,-0.02052975259721279,-0.005836427211761475,0.0,-0.01445387676358223,0.0079480716958642,0.0175028033554554,0.0,0.0,-0.01915362849831581,-0.04517724737524986,0.004198862239718437,0.1752343624830246,0.0,0.0,-0.04148010164499283,0.011898341588675976,-0.011378329247236252,0.0005555854877457023,0.0,0.027525214478373528,-0.05665319785475731,0.0,-0.13098891079425812,0.021905921399593353,0.008160299621522427,0.29093119502067566,0.06440648436546326
4.442281246185303,0.014842200092971325,-0.0038979635573923588,0.06555324047803879,-0.09723499417304993,-0.023697154596447945,0.0011064556892961264,0.43420013785362244,-0.1708928346633911,-0.06274524331092834,-0.14603962004184723,0.007766321767121553,-0.1888396441936493,0.0,0.10749112814664841,-0.031149346381425858,0.10749032348394394,0.06013382598757744,0.0022505568340420723,-0.005106690805405378,0.0,-0.1354990452528,0.030910251662135124,0.0,0.11454683542251587,-0.006137378979474306,0.0980156660079956,-0.13684116303920746,0.0949530377984047,0.0,0.021764930337667465,0.07730016112327576,-0.30892637372016907,0.043429307639598846,0.0800568237900734,-0.012321329675614834,-0.02052975259721279,-0.005836427211761475,0.0,-0.01445387676358223,0.0079480716958642,0.0175028033554554,0.0,0.0,-0.01915362849831581,-0.04517724737524986,0.004198862239718437,0.1752343624830246,0.0,0.0,-0.04148010164499283,0.011898341588675976,-0.01137833297252655,0.0005555853131227195,0.0,0.027525214478373528,-0.056653186678886414,0.0,-0.13098891079425812,0.02190592885017395,0.008160299621522427,0.29093119502067566,0.06440648436546326
4.442281246185303,0.01484219916164875,-0.0038979609962552786,0.06555324047803879,-0.09723499417304993,-0.023697154596447945,0.0011064584832638502,0.43420013785362244,-0.1708928346633911,-0.06274524331092834,-0.14603962004184723,0.007766314782202244,-0.1888396441936493,0.0,0.10749112814664841,-0.031149346381425858,0.10749032348394394,0.06013382598757744,0.0022505568340420723,-0.005106690805405378,0.0,-0.1354990452528,0.030910251662135124,0.0,0.11454683542251587,-0.006137378979474306,0.0980156660079956,-0.13684116303920746,0.0949530377984047,0.0,0.021764930337667465,0.07730016112327576,-0.3089263439178467,0.04342930391430855,0.0800568237900734,-0.01232132501900196,-0.02052975259721279,-0.005836427211761475,0.0,-0.01445387676358223,0.0079480716958642,0.0175028033554554,0.0,0.0,-0.01915362849831581,-0.04517724737524986,0.004198862239718437,0.1752343624830246,0.0,0.0,-0.04148010164499283,0.011898341588675976,-0.011378339491784573,0.000555585022084415,0.0,0.027525214478373528,-0.05665316805243492,0.0,-0.13098891079425812,0.021905940026044846,0.008160299621522427,0.29093119502067566,0.06440648436546326
4.442281246185303,0.01484219916164875,-0.0038979584351181984,0.06555323302745819,-0.09723499417304993,-0.023697154596447945,0.0011064602294936776,0.43420013785362244,-0.1708928346633911,-0.06274524331092834,-0.14603962004184723,0.007766303140670061,-0.1888396441936493,0.0,0.10749112814664841,-0.031149346381425858,0.10749032348394394,0.06013382598757744,0.0022505568340420723,-0.005106690805405378,0.0,-0.1354990452528,0.030910251662135124,0.0,0.11454683542251587,-0.006137378979474306,0.0980156660079956,-0.13684116303920746,0.0949530377984047,0.0,0.021764930337667465,0.07730016112327576,-0.3089263141155243,0.04342927783727646,0.08005683124065399,-0.012321321293711662,-0.02052975259721279,-0.005836427211761475,0.0,-0.01445387676358223,0.0079480716958642,0.0175028033554554,0.0,0.0,-0.01915362849831581,-0.04517724737524986,0.004198862239718437,0.1752343773841858,0.0,0.0,-0.04148010164499283,0.011898341588675976,-0.011378347873687744,0.0005555847310461104,0.0,0.027525214478373528,-0.05665312707424164,0.0,-0.13098891079425812,0.02190597914159298,0.008160299621522427,0.29093119502067566,0.06440648436546326
4.442281246185303,0.01484219916164875,-0.0038979514501988888,0.065553218126297,-0.09723499417304993,-0.023697154596447945,0.001106465351767838,0.43420013785362244,-0.1708928346633911,-0.06274524331092834,-0.14603962004184723,0.007766288239508867,-0.1888396441936493,0.0,0.10749112814664841,-0.031149346381425858,0.10749032348394394,0.06013382598757744,0.0022505575325340033,-0.005106690805405378,0.0,-0.1354990452528,0.030910251662135124,0.0,0.11454683542251587,-0.006137378979474306,0.0980156660079956,-0.13684116303920746,0.0949530377984047,0.0,0.021764930337667465,0.07730016112327576,-0.3089262843132019,0.04342923313379288,0.08005683124065399,-0.012321310117840767,-0.02052975259721279,-0.005836427211761475,0.0,-0.01445387676358223,0.0079480716958642,0.0175028033554554,0.0,0.0,-0.01915362849831581,-0.04517724737524986,0.004198862239718437,0.1752343624830246,0.0,0.0,-0.04148010164499283,0.011898341588675976,-0.01137835718691349,0.0005555844400078058,0.0,0.027525214478373528,-0.05665310472249985,0.0,-0.13098891079425812,0.02190600335597992,0.008160299621522427,0.29093119502067566,0.06440648436546326
4.442281246185303,0.014842194505035877,-0.0038979516830295324,0.0655532106757164,-0.09723500162363052,-0.023697154596447945,0.0011064604623243213,0.43420013785362244,-0.1708928346633911,-0.06274524331092834,-0.14603962004184723,0.007766277063637972,-0.1888396441936493,0.0,0.10749112814664841,-0.031149346381425858,0.10749032348394394,0.06013382598757744,0.0022505579981952906,-0.005106690805405378,0.0,-0.1354990452528,0.030910251662135124,0.0,0.11454683542251587,-0.006137378979474306,0.0980156660079956,-0.13684116303920746,0.0949530377984047,0.0,0.021764930337667465,0.07730016112327576,-0.3089262545108795,0.043429240584373474,0.08005683124065399,-0.012321299873292446,-0.02052975259721279,-0.005836427211761475,0.0,-0.01445387676358223,0.0079480716958642,0.0175028033554554,0.0,0.0,-0.01915362849831581,-0.04517724737524986,0.004198862239718437,0.17523439228534698,0.0,0.0,-0.04148010164499283,0.011898341588675976,-0.011378366500139236,0.0005555841489695013,0.0,0.027525214478373528,-0.05665305629372597,0.0,-0.13098891079425812,0.02190602570772171,0.008160299621522427,0.29093119502067566,0.06440648436546326
4.442281246185303,0.014842191711068153,-0.0038979523815214634,0.0655532032251358,-0.09723501652479172,-0.023697154596447945,0.0011064385762438178,0.43420013785362244,-0.1708928495645523,-0.06274524331092834,-0.14603962004184723,0.007766255643218756,-0.1888396441936493,0.0,0.10749112814664841,-0.031149346381425858,0.10749032348394394,0.06013382598757744,0.002250558463856578,-0.005106690805405378,0.0,-0.1354990452528,0.030910251662135124,0.0,0.11454683542251587,-0.006137378979474306,0.0980156660079956,-0.13684116303920746,0.0949530377984047,0.0,0.021764930337667465,0.07730016112327576,-0.3089262545108795,0.04342928156256676,0.08005683124065399,-0.012321298010647297,-0.02052975259721279,-0.005836427211761475,0.0,-0.01445387676358223,0.007948072627186775,0.0175028033554554,0.0,0.0,-0.01915362849831581,-0.04517724737524986,0.004198862239718437,0.17523443698883057,0.0,0.0,-0.04148010164499283,0.011898341588675976,-0.011378374882042408,0.0005555838579311967,0.0,0.027525214478373528,-0.05665303394198418,0.0,-0.13098891079425812,0.021906159818172455,0.008160299621522427,0.29093119502067566,0.06440648436546326
4.442281246185303,0.014842189848423004,-0.003897949820384383,0.0655532032251358,-0.09723502397537231,-0.023697154596447945,0.0011064535938203335,0.43420013785362244,-0.1708928644657135,-0.06274524331092834,-0.14603962004184723,0.007766240742057562,-0.1888396441936493,0.0,0.10749112814664841,-0.031149346381425858,0.10749032348394394,0.06013382598757744,0.0022505593951791525,-0.005106690805405378,0.0,-0.1354990452528,0.030910251662135124,0.0,0.11454683542251587,-0.006137378979474306,0.0980156660079956,-0.13684116303920746,0.0949530377984047,0.0,0.021764930337667465,0.07730016112327576,-0.30892622470855713,0.043429333716630936,0.08005683869123459,-0.012321307323873043,-0.02052975259721279,-0.005836427211761475,0.0,-0.01445387676358223,0.00794807355850935,0.0175028033554554,0.0,0.0,-0.01915362849831581,-0.04517724737524986,0.004198862239718437,0.17523451149463654,0.0,0.0,-0.04148010164499283,0.011898341588675976,-0.011378382332623005,0.000555583625100553,0.0,0.027525214478373528,-0.05665300041437149,0.0,-0.13098891079425812,0.021906306967139244,0.008160299621522427,0.29093119502067566,0.06440648436546326
4.442281246185303,0.014842192642390728,-0.003897943301126361,0.06555318832397461,-0.09723503142595291,-0.023697152733802795,0.0011064964346587658,0.43420013785362244,-0.1708928793668747,-0.06274524331092834,-0.14603962004184723,0.007766227703541517,-0.1888396441936493,0.0,0.10749112814664841,-0.031149346381425858,0.10749032348394394,0.06013382598757744,0.002250559162348509,-0.005106690805405378,0.0,-0.1354990452528,0.030910251662135124,0.0,0.11454683542251587,-0.006137378979474306,0.0980156660079956,-0.13684116303920746,0.0949530377984047,0.0,0.021764930337667465,0.07730016112327576,-0.30892619490623474,0.04342930018901825,0.08005684614181519,-0.012321344576776028,-0.02052975259721279,-0.005836427211761475,0.0,-0.01445387676358223,0.00794807355850935,0.0175028033554554,0.0,0.0,-0.01915362849831581,-0.04517724737524986,0.004198862239718437,0.17523455619812012,0.0,0.0,-0.04148010164499283,0.011898341588675976,-0.011378389783203602,0.0005555833922699094,0.0,0.027525214478373528,-0.05665295943617821,0.0,-0.13098891079425812,0.021906498819589615,0.008160299621522427,0.29093119502067566,0.06440648436546326
4.442281246185303,0.014842189848423004,-0.0038979407399892807,0.06555318087339401,-0.09723503887653351,-0.023697152733802795,0.0011064992286264896,0.43420013785362244,-0.1708928942680359,-0.06274524331092834,-0.14603962004184723,0.007766219787299633,-0.1888396441936493,0.0,0.10749112814664841,-0.031149346381425858,0.10749032348394394,0.06013382598757744,0.002250557765364647,-0.005106690805405378,0.0,-0.1354990452528,0.030910251662135124,0.0,0.11454683542251587,-0.006137378979474306,0.0980156660079956,-0.13684116303920746,0.0949530377984047,0.0,0.021764930337667465,0.07730016112327576,-0.30892616510391235,0.04342932999134064,0.08005685359239578,-0.012321403250098228,-0.02052975259721279,-0.005836427211761475,0.0,-0.01445387676358223,0.007948074489831924,0.0175028033554554,0.0,0.0,-0.01915362849831581,-0.04517724737524986,0.004198862239718437,0.1752346158027649,0.0,0.0,-0.04148010164499283,0.011898341588675976,-0.011378396302461624,0.0005555832176469266,0.0,0.027525214478373528,-0.05665288120508194,0.0,-0.13098891079425812,0.021906722337007523,0.008160299621522427,0.29093119502067566,0.06440648436546326
4.442281246185303,0.014842177741229534,-0.0038979374803602695,0.0655532032251358,-0.0972350537776947,-0.023697152733802795,0.0011063494021072984,0.43420013785362244,-0.1708928942680359,-0.06274524331092834,-0.14603962004184723,0.00776624632999301,-0.1888396441936493,0.0,0.10749112814664841,-0.031149348244071007,0.10749032348394394,0.06013382598757744,0.0022505586966872215,-0.005106690805405378,0.0,-0.1354990452528,0.030910251662135124,0.0,0.11454683542251587,-0.006137378979474306,0.0980156660079956,-0.13684116303920746,0.0949530377984047,0.0,0.021764930337667465,0.07730013877153397,-0.30892613530158997,0.04342951625585556,0.08005686104297638,-0.012321434915065765,-0.02052975259721279,-0.005836427211761475,0.0,-0.01445387676358223,0.007948074489831924,0.0175028033554554,0.0,0.0,-0.01915362849831581,-0.04517724737524986,0.004198862239718437,0.17523472011089325,0.0,0.0,-0.04148010164499283,0.011898341588675976,-0.011378402821719646,0.0005555830430239439,0.0,0.027525214478373528,-0.05665282905101776,0.0,-0.13098891079425812,0.02190697379410267,0.008160299621522427,0.29093119502067566,0.06440648436546326
4.442281246185303,0.014842163771390915,-0.0038979339879006147,0.065553218126297,-0.09723507612943649,-0.023697152733802795,0.0011062984121963382,0.43420013785362244,-0.17089290916919708,-0.06274524331092834,-0.14603962004184723,0.007766248192638159,-0.1888396441936493,0.0,0.10749112814664841,-0.031149348244071007,0.10749032348394394,0.06013382598757744,0.0022505586966872215,-0.005106690805405378,0.0,-0.1354990452528,0.030910251662135124,0.0,0.11454683542251587,-0.006137378979474306,0.0980156660079956,-0.13684116303920746,0.0949530377984047,0.0,0.021764930337667465,0.07730013132095337,-0.3089261054992676,0.04342958331108093,0.08005686104297638,-0.012321436777710915,-0.02052975259721279,-0.005836427211761475,0.0,-0.01445387676358223,0.007948075421154499,0.0175028033554554,0.0,0.0,-0.01915362849831581,-0.04517724737524986,0.004198862239718437,0.1752348244190216,0.0,0.0,-0.04148010164499283,0.011898341588675976,-0.01137840747833252,0.0005555828684009612,0.0,0.027525214478373528,-0.05665276199579239,0.0,-0.13098891079425812,0.021907232701778412,0.008160299621522427,0.29093119502067566,0.06440648436546326
4.442281246185303,0.014842165634036064,-0.0038979302626103163,0.06555323302745819,-0.09723508358001709,-0.023697152733802795,0.0011063320562243462,0.43420013785362244,-0.17089292407035828,-0.06274523586034775,-0.14603962004184723,0.007766231428831816,-0.1888396441936493,0.0,0.10749112814664841,-0.031149350106716156,0.10749032348394394,0.06013382598757744,0.0022505575325340033,-0.005106690805405378,0.0,-0.1354990452528,0.030910251662135124,0.0,0.11454683542251587,-0.006137378979474306,0.0980156660079956,-0.13684116303920746,0.0949530377984047,0.0,0.021764930337667465,0.07730012387037277,-0.3089260756969452,0.04342968761920929,0.08005686104297638,-0.012321419082581997,-0.02052975259721279,-0.005836427211761475,0.0,-0.01445387676358223,0.007948078215122223,0.0175028033554554,0.0,0.0,-0.01915362849831581,-0.04517724737524986,0.004198862239718437,0.17523495852947235,0.0,0.0,-0.04148010164499283,0.011898341588675976,-0.011378412134945393,0.0005555827519856393,0.0,0.027525214478373528,-0.05665270611643791,0.0,-0.13098891079425812,0.021907562389969826,0.008160299621522427,0.29093119502067566,0.06440648436546326
4.442281246185303,0.014842147007584572,-0.0038979477249085903,0.06555327028036118,-0.09723509848117828,-0.023697152733802795,0.0011062071425840259,0.43420013785362244,-0.17089292407035828,-0.06274522840976715,-0.14603962004184723,0.007766221184283495,-0.1888396441936493,0.0,0.10749112814664841,-0.031149350106716156,0.10749032348394394,0.06013382598757744,0.00225055986084044,-0.005106690805405378,0.0,-0.1354990452528,0.030910251662135124,0.0,0.11454683542251587,-0.006137378979474306,0.0980156660079956,-0.13684116303920746,0.0949530377984047,0.0,0.021764930337667465,0.07730012387037277,-0.3089260458946228,0.04342985898256302,0.08005686104297638,-0.01232143770903349,-0.02052975259721279,-0.005836427211761475,0.0,-0.01445387676358223,0.007948081940412521,0.0175028033554554,0.0,0.0,-0.01915362849831581,-0.04517724737524986,0.004198862239718437,0.17523518204689026,0.0,0.0,-0.04148010164499283,0.011898341588675976,-0.011378415860235691,0.0005555826355703175,0.0,0.027525214478373528,-0.05665256828069687,0.0,-0.13098891079425812,0.021908005699515343,0.008160299621522427,0.29093119502067566,0.06440648436546326
4.442281246185303,0.014842132106423378,-0.0038979477249085903,0.06555327028036118,-0.09723510593175888,-0.023697150871157646,0.001106122974306345,0.43420013785362244,-0.17089290916919708,-0.06274522095918655,-0.14603962004184723,0.007766222581267357,-0.1888396441936493,0.0,0.10749112814664841,-0.031149350106716156,0.10749032348394394,0.06013382598757744,0.0022505654487758875,-0.005106690805405378,0.0,-0.1354990452528,0.030910251662135124,0.0,0.11454683542251587,-0.006137378979474306,0.0980156660079956,-0.13684116303920746,0.0949530377984047,0.0,0.021764930337667465,0.07730011641979218,-0.3089260160923004,0.04342977702617645,0.08005685359239578,-0.012321452610194683,-0.02052975259721279,-0.005836427211761475,0.0,-0.01445387676358223,0.007948086597025394,0.01750280149281025,0.0,0.0,-0.01915362849831581,-0.04517724737524986,0.004198862239718437,0.17523519694805145,0.0,0.0,-0.04148010164499283,0.011898341588675976,-0.01137841958552599,0.0005555825191549957,0.0,0.027525214478373528,-0.05665247142314911,0.0,-0.13098891079425812,0.021908359602093697,0.008160299621522427,0.29093119502067566,0.06440648436546326
4.442281246185303,0.014842106029391289,-0.003897976828739047,0.06555329263210297,-0.09723513573408127,-0.023697150871157646,0.001105991774238646,0.43420013785362244,-0.17089290916919708,-0.06274522095918655,-0.14603962004184723,0.007766231428831816,-0.1888396441936493,0.0,0.10749112814664841,-0.031149350106716156,0.10749032348394394,0.06013382598757744,0.002250567078590393,-0.005106690805405378,0.0,-0.1354990452528,0.030910251662135124,0.0,0.11454683542251587,-0.006137378979474306,0.0980156660079956,-0.13684116303920746,0.0949530377984047,0.0,0.021764930337667465,0.07730012387037277,-0.3089260160923004,0.04342982918024063,0.08005685359239578,-0.012321456335484982,-0.02052975259721279,-0.005836427211761475,0.0,-0.01445387676358223,0.007948092184960842,0.0175027996301651,0.0,0.0,-0.01915362849831581,-0.045177243649959564,0.004198862239718437,0.17523552477359772,0.0,0.0,-0.04148010164499283,0.011898341588675976,-0.011378422379493713,0.0005555824027396739,0.0,0.027525214478373528,-0.056652314960956573,0.0,-0.13098891079425812,0.021908847615122795,0.008160299621522427,0.29093119502067566,0.06440648436546326
4.442281246185303,0.01484206598252058,-0.0038979947566986084,0.06555339694023132,-0.09723515063524246,-0.023697152733802795,0.0011057344963774085,0.43420013785362244,-0.1708928942680359,-0.06274521350860596,-0.14603962004184723,0.007766269613057375,-0.1888396441936493,0.0,0.10749112814664841,-0.031149353832006454,0.10749032348394394,0.06013382598757744,0.002250565914437175,-0.005106690805405378,0.0,-0.1354990452528,0.030910251662135124,0.0,0.11454683542251587,-0.006137378979474306,0.0980156660079956,-0.13684116303920746,0.0949530377984047,0.0,0.021764930337667465,0.07730010896921158,-0.3089260458946228,0.04343012720346451,0.08005684614181519,-0.012321466580033302,-0.02052975259721279,-0.005836427211761475,0.0,-0.01445387676358223,0.007948099635541439,0.0175027996301651,0.0,0.0,-0.01915362849831581,-0.045177243649959564,0.00419886177405715,0.17523588240146637,0.0,0.0,-0.04148010164499283,0.011898341588675976,-0.011378423310816288,0.0005555823445320129,0.0,0.027525214478373528,-0.05665190890431404,0.0,-0.13098891079425812,0.021909233182668686,0.008160299621522427,0.29093119502067566,0.06440648436546326
4.442281246185303,0.014842030592262745,-0.003898009890690446,0.06555352360010147,-0.09723516553640366,-0.023697154596447945,0.001105592935346067,0.43420013785362244,-0.17089290916919708,-0.06274520605802536,-0.14603962004184723,0.007766310125589371,-0.1888396441936493,0.0,0.10749112814664841,-0.031149355694651604,0.10749032348394394,0.06013382598757744,0.002250568475574255,-0.005106690805405378,0.0,-0.1354990452528,0.030910251662135124,0.0,0.11454683542251587,-0.006137378979474306,0.0980156660079956,-0.13684116303920746,0.0949530377984047,0.0,0.021764930337667465,0.07730011641979218,-0.3089260756969452,0.04343032091856003,0.08005684614181519,-0.012321464717388153,-0.02052975259721279,-0.005836427211761475,0.0,-0.01445387676358223,0.007948113605380058,0.01750279776751995,0.0,0.0,-0.01915362849831581,-0.045177243649959564,0.00419886177405715,0.17523632943630219,0.0,0.0,-0.04148010164499283,0.011898341588675976,-0.011378420516848564,0.000555582286324352,0.0,0.027525214478373528,-0.05665172263979912,0.0,-0.13098891079425812,0.021909840404987335,0.008160299621522427,0.29093119502067566,0.06440648436546326
4.442281246185303,0.014842010103166103,-0.0038980026729404926,0.06555364280939102,-0.09723518788814545,-0.023697154596447945,0.0011055755894631147,0.43420013785362244,-0.17089290916919708,-0.06274519115686417,-0.14603962004184723,0.007766351103782654,-0.1888396441936493,0.0,0.10749112814664841,-0.031149359419941902,0.10749032348394394,0.06013382598757744,0.0022505708038806915,-0.005106690805405378,0.0,-0.1354990452528,0.030910251662135124,0.0,0.11454683542251587,-0.006137378979474306,0.0980156660079956,-0.13684116303920746,0.0949530377984047,0.0,0.021764930337667465,0.07730012387037277,-0.3089260756969452,0.04343028739094734,0.08005686104297638,-0.012321462854743004,-0.02052975259721279,-0.005836427211761475,0.0,-0.01445387676358223,0.00794812012463808,0.01750279776751995,0.0,0.0,-0.01915362849831581,-0.04517724737524986,0.00419886177405715,0.1752365082502365,0.0,0.0,-0.04148010164499283,0.011898341588675976,-0.011378420516848564,0.0005555822281166911,0.0,0.027525214478373528,-0.05665146932005882,0.0,-0.13098891079425812,0.021910352632403374,0.008160299621522427,0.29093119502067566,0.06440648436546326
4.442281246185303,0.014841973781585693,-0.0038980008102953434,0.06555380672216415,-0.09723520278930664,-0.023697154596447945,0.0011055427603423595,0.43420013785362244,-0.17089290916919708,-0.06274516880512238,-0.14603962004184723,0.00776639161631465,-0.1888396441936493,0.0,0.10749112814664841,-0.03114936128258705,0.10749032348394394,0.06013382598757744,0.00225058407522738,-0.005106690805405378,0.0,-0.1354990452528,0.030910251662135124,0.0,0.11454683542251587,-0.006137378979474306,0.0980156660079956,-0.13684116303920746,0.0949530377984047,0.0,0.021764930337667465,0.07730012387037277,-0.3089260756969452,0.04343034327030182,0.08005687594413757,-0.0123214703053236,-0.02052975259721279,-0.005836427211761475,0.0,-0.01445387676358223,0.007948130369186401,0.01750279776751995,0.0,0.0,-0.01915362849831581,-0.045177239924669266,0.004198861308395863,0.17523685097694397,0.0,0.0,-0.04148010164499283,0.011898341588675976,-0.011378424242138863,0.0005555821699090302,0.0,0.027525214478373528,-0.05665130540728569,0.0,-0.13098891079425812,0.02191084623336792,0.008160299621522427,0.29093119502067566,0.06440648436546326
4.442281246185303,0.014841949567198753,-0.0038980108220130205,0.06555395573377609,-0.09723524749279022,-0.023697156459093094,0.0011056495131924748,0.43420013785362244,-0.17089292407035828,-0.06274515390396118,-0.14603962004184723,0.007766416762024164,-0.1888396441936493,0.0,0.10749112814664841,-0.03114936500787735,0.10749032348394394,0.06013382598757744,0.0022506010718643665,-0.005106690805405378,0.0,-0.1354990452528,0.030910251662135124,0.0,0.11454683542251587,-0.006137378979474306,0.0980156660079956,-0.13684116303920746,0.0949530377984047,0.0,0.021764930337667465,0.07730013132095337,-0.3089260756969452,0.04343037307262421,0.08005689084529877,-0.012321478687226772,-0.02052975259721279,-0.005836427211761475,0.0,-0.01445387676358223,0.007948147132992744,0.01750279776751995,0.0,0.0,-0.01915362849831581,-0.04517723619937897,0.004198860842734575,0.17523720860481262,0.0,0.0,-0.04148010164499283,0.011898341588675976,-0.011378416791558266,0.0005555821117013693,0.0,0.027525214478373528,-0.05665108561515808,0.0,-0.13098891079425812,0.021911339834332466,0.008160299621522427,0.29093119502067566,0.06440648436546326
4.442281246185303,0.014841915108263493,-0.0038979926612228155,0.06555406749248505,-0.09723533689975739,-0.023697158321738243,0.0011056439252570271,0.43420013785362244,-0.17089292407035828,-0.06274513155221939,-0.14603962004184723,0.007766443770378828,-0.1888396441936493,0.0,0.10749112814664841,-0.0311493668705225,0.10749032348394394,0.06013382598757744,0.002250614343211055,-0.005106690805405378,0.0,-0.1354990452528,0.030910251662135124,0.0,0.11454683542251587,-0.006137378979474306,0.0980156660079956,-0.13684116303920746,0.0949530377984047,0.0,0.021764930337667465,0.07730012387037277,-0.3089261054992676,0.04343052953481674,0.08005689084529877,-0.012321468442678452,-0.02052975259721279,-0.005836427211761475,0.0,-0.01445387676358223,0.007948163896799088,0.0175027959048748,0.0,0.0,-0.01915362849831581,-0.04517723619937897,0.004198860377073288,0.17523735761642456,0.0,0.0,-0.04148010164499283,0.011898341588675976,-0.011378411203622818,0.0005555820534937084,0.0,0.027525214478373528,-0.05665092170238495,0.0,-0.13098891079425812,0.021911971271038055,0.008160299621522427,0.29093119502067566,0.06440648436546326
4.442281246185303,0.014841889962553978,-0.0038980033714324236,0.0655541941523552,-0.09723542630672455,-0.023697160184383392,0.0011055183131247759,0.43420013785362244,-0.17089292407035828,-0.0627451092004776,-0.14603962004184723,0.0077664777636528015,-0.1888396441936493,0.0,0.10749112814664841,-0.03114936873316765,0.10749032348394394,0.06013382598757744,0.002250622259452939,-0.005106690805405378,0.0,-0.1354990452528,0.030910251662135124,0.0,0.11454683542251587,-0.006137378979474306,0.0980156660079956,-0.13684116303920746,0.0949530377984047,0.0,0.021764930337667465,0.07730011641979218,-0.3089261054992676,0.04343060031533241,0.08005688339471817,-0.01232143770903349,-0.02052975259721279,-0.005836427211761475,0.0,-0.01445387676358223,0.0079481927677989,0.017502794042229652,0.0,0.0,-0.01915362849831581,-0.04517722874879837,0.004198859911412001,0.17523729801177979,0.0,0.0,-0.04148010164499283,0.011898341588675976,-0.01137840561568737,0.0005555819952860475,0.0,0.027525214478373528,-0.05665075033903122,0.0,-0.13098891079425812,0.021912576630711555,0.008160299621522427,0.29093119502067566,0.06440648436546326
4.442281246185303,0.014841864816844463,-0.0038980026729404926,0.06555427610874176,-0.09723549336194992,-0.023697160184383392,0.0011056176153942943,0.43420013785362244,-0.17089293897151947,-0.06274508684873581,-0.14603962004184723,0.007766564376652241,-0.1888396441936493,0.0,0.10749112814664841,-0.031149370595812798,0.10749032348394394,0.06013382598757744,0.002250630408525467,-0.005106691271066666,0.0,-0.1354990452528,0.030910251662135124,0.0,0.11454683542251587,-0.006137378979474306,0.0980156660079956,-0.13684116303920746,0.09495304524898529,0.0,0.021764930337667465,0.07730009406805038,-0.3089260756969452,0.0434306301176548,0.08005689084529877,-0.012321396730840206,-0.02052975259721279,-0.005836427211761475,0.0,-0.01445387676358223,0.00794820673763752,0.017502794042229652,0.0,0.0,-0.01915362849831581,-0.045177213847637177,0.004198858048766851,0.17523716390132904,0.0,0.0,-0.04148010164499283,0.011898341588675976,-0.011378399096429348,0.0005555819370783865,0.0,0.027525214478373528,-0.05665029585361481,0.0,-0.13098891079425812,0.021913282573223114,0.008160299621522427,0.29093119502067566,0.06440648436546326
4.442281246185303,0.014841826632618904,-0.003898013848811388,0.06555432081222534,-0.09723558276891708,-0.023697156459093094,0.001105434843339026,0.43420013785362244,-0.17089290916919708,-0.06274507194757462,-0.14603962004184723,0.007766634225845337,-0.18883965909481049,0.0,0.10749112814664841,-0.031149370595812798,0.10749032348394394,0.06013382598757744,0.0022506392560899258,-0.005106691736727953,0.0,-0.1354990452528,0.030910251662135124,0.0,0.11454683542251587,-0.006137378979474306,0.0980156660079956,-0.13684116303920746,0.09495304524898529,0.0,0.021764930337667465,0.0773000419139862,-0.3089260458946228,0.043430671095848083,0.08005684614181519,-0.012321447022259235,-0.02052975259721279,-0.005836427211761475,0.0,-0.01445387676358223,0.007948232814669609,0.017502794042229652,0.0,0.0,-0.01915362849831581,-0.04517720267176628,0.004198857583105564,0.1752372682094574,0.0,0.0,-0.04148010164499283,0.011898341588675976,-0.011378363706171513,0.0005555837997235358,0.0,0.027525214478373528,-0.0566500760614872,0.0,-0.13098891079425812,0.021913761273026466,0.008160299621522427,0.29093119502067566,0.06440648436546326
4.442281246185303,0.01484178937971592,-0.003898030612617731,0.06555440276861191,-0.09723567962646484,-0.023697156459093094,0.0011051692999899387,0.43420013785362244,-0.1708928942680359,-0.06274504959583282,-0.14603962004184723,0.0077667199075222015,-0.18883965909481049,0.0,0.10749112814664841,-0.031149370595812798,0.10749032348394394,0.06013382598757744,0.0022506483364850283,-0.00510669220238924,0.0,-0.1354990452528,0.030910251662135124,0.0,0.11454683542251587,-0.006137378979474306,0.0980156660079956,-0.13684116303920746,0.09495304524898529,0.0,0.021764930337667465,0.07729996740818024,-0.3089260160923004,0.043430767953395844,0.0800568163394928,-0.012321490794420242,-0.02052975259721279,-0.005836427211761475,0.0,-0.01445387676358223,0.007948262616991997,0.017502792179584503,0.0,0.0,-0.01915362849831581,-0.04517718404531479,0.0041988566517829895,0.17523720860481262,0.0,0.0,-0.04148010164499283,0.011898341588675976,-0.011378324590623379,0.0005555867101065814,0.0,0.027525214478373528,-0.056649938225746155,0.0,-0.13098891079425812,0.0219142884016037,0.008160299621522427,0.29093119502067566,0.06440648436546326
4.442281246185303,0.014841727912425995,-0.0038980606477707624,0.06555458158254623,-0.0972357839345932,-0.023697156459093094,0.0011046648724004626,0.43420013785362244,-0.1708928793668747,-0.06274504214525223,-0.14603962004184723,0.007766800932586193,-0.18883965909481049,0.0,0.10749112814664841,-0.0311493668705225,0.10749032348394394,0.06013382598757744,0.0022506569512188435,-0.005106692668050528,0.0,-0.1354990452528,0.030910251662135124,0.0,0.11454683542251587,-0.006137378979474306,0.0980156660079956,-0.13684116303920746,0.09495304524898529,0.0,0.021764930337667465,0.07729990035295486,-0.3089260160923004,0.043431129306554794,0.0800568088889122,-0.012321509420871735,-0.02052975259721279,-0.005836427211761475,0.0,-0.01445387676358223,0.007948283106088638,0.017502790316939354,0.0,0.0,-0.01915362849831581,-0.04517717286944389,0.0041988566517829895,0.17523744702339172,0.0,0.0,-0.04148010164499283,0.011898341588675976,-0.011378306895494461,0.0005555881652981043,0.0,0.027525214478373528,-0.05664961040019989,0.0,-0.13098891079425812,0.02191505953669548,0.008160299621522427,0.29093119502067566,0.06440648436546326
4.442281246185303,0.01484167855232954,-0.003898108610883355,0.06555484235286713,-0.09723586589097977,-0.023697156459093094,0.0011041199322789907,0.43420013785362244,-0.1708928644657135,-0.06274502724409103,-0.14603962004184723,0.007766846101731062,-0.18883967399597168,0.0,0.10749112814664841,-0.0311493668705225,0.10749032348394394,0.06013382598757744,0.0022506630048155785,-0.005106693133711815,0.0,-0.1354990452528,0.030910251662135124,0.0,0.11454683542251587,-0.006137378979474306,0.0980156660079956,-0.13684116303920746,0.09495304524898529,0.0,0.021764930337667465,0.07729985564947128,-0.3089260160923004,0.04343147575855255,0.0800568014383316,-0.01232150848954916,-0.02052975259721279,-0.005836427211761475,0.0,-0.01445387676358223,0.007948334328830242,0.017502788454294205,0.0,0.0,-0.01915362849831581,-0.045177165418863297,0.004198853857815266,0.17523783445358276,0.0,0.0,-0.04148010164499283,0.011898341588675976,-0.011378247290849686,0.0005555903189815581,0.0,0.027525214478373528,-0.05664920061826706,0.0,-0.13098891079425812,0.02191581204533577,0.008160299621522427,0.29093119502067566,0.06440648436546326
4.442281246185303,0.014841652475297451,-0.0038980692625045776,0.06555496156215668,-0.09723594039678574,-0.023697156459093094,0.0011041407706215978,0.43420013785362244,-0.1708928793668747,-0.06274498254060745,-0.14603962004184723,0.0077668954618275166,-0.18883967399597168,0.0,0.10749112814664841,-0.0311493668705225,0.10749032348394394,0.06013382598757744,0.0022506616078317165,-0.005106693599373102,0.0,-0.1354990452528,0.030910251662135124,0.0,0.11454683542251587,-0.006137378979474306,0.0980156660079956,-0.13684116303920746,0.09495304524898529,0.0,0.021764930337667465,0.07729985564947128,-0.3089260160923004,0.04343123733997345,0.08005679398775101,-0.012321519665420055,-0.02052975259721279,-0.005836427211761475,0.0,-0.01445387676358223,0.00794836226850748,0.017502788454294205,0.0,0.0,-0.01915362849831581,-0.045177143067121506,0.004198851995170116,0.17523787915706635,0.0,0.0,-0.04148010164499283,0.011898341588675976,-0.011378213763237,0.0005555935204029083,0.0,0.027525214478373528,-0.05664893984794617,0.0,-0.13098891079425812,0.021916331723332405,0.008160299621522427,0.29093119502067566,0.06440648436546326
4.442281246185303,0.014841576106846333,-0.0038980955723673105,0.0655551627278328,-0.09723606705665588,-0.023697156459093094,0.0011034217895939946,0.43420013785362244,-0.1708928495645523,-0.06274498999118805,-0.14603962004184723,0.007767001632601023,-0.18883967399597168,0.0,0.10749112814664841,-0.03114936500787735,0.10749032348394394,0.06013382598757744,0.0022506648674607277,-0.0051066940650343895,0.0,-0.1354990452528,0.030910251662135124,0.0,0.11454683542251587,-0.006137378979474306,0.0980156660079956,-0.13684116303920746,0.09495304524898529,0.0,0.021764930337667465,0.0772998258471489,-0.3089261054992676,0.04343157634139061,0.0800568014383316,-0.01232153456658125,-0.02052975259721279,-0.005836427211761475,0.0,-0.01445387676358223,0.0079483762383461,0.017502790316939354,0.0,0.0,-0.01915362849831581,-0.04517712816596031,0.0041988505981862545,0.17523805797100067,0.0,0.0,-0.04148010164499283,0.011898341588675976,-0.011378196068108082,0.0005555899115279317,0.0,0.027525214478373528,-0.056648895144462585,0.0,-0.13098891079425812,0.02191677875816822,0.008160299621522427,0.29093119502067566,0.06440648436546326
4.442281246185303,0.014841512776911259,-0.0038980757817626,0.06555533409118652,-0.09723617881536484,-0.023697160184383392,0.0011026456486433744,0.43420013785362244,-0.17089278995990753,-0.06274498999118805,-0.14603962004184723,0.007767142727971077,-0.18883967399597168,0.0,0.10749112814664841,-0.03114936500787735,0.10749032348394394,0.06013382598757744,0.002250666730105877,-0.005106694530695677,0.0,-0.1354990452528,0.030910251662135124,0.0,0.11454683542251587,-0.006137378979474306,0.0980156660079956,-0.13684116303920746,0.09495305269956589,0.0,0.021764930337667465,0.07729975134134293,-0.30892613530158997,0.04343198984861374,0.08005685359239578,-0.012321450747549534,-0.02052975259721279,-0.005836427211761475,0.0,-0.01445387676358223,0.00794838834553957,0.017502790316939354,0.0,0.0,-0.01915362849831581,-0.04517710953950882,0.00419884966686368,0.17523831129074097,0.0,0.0,-0.04148010164499283,0.011898341588675976,-0.01137816533446312,0.0005555883981287479,0.0,0.027525214478373528,-0.05664890259504318,0.0,-0.13098891079425812,0.021917743608355522,0.008160299621522427,0.29093119502067566,0.06440648436546326
4.442281246185303,0.014841493219137192,-0.0038979938253760338,0.0655553936958313,-0.09723635762929916,-0.02369716390967369,0.0011025522835552692,0.43420013785362244,-0.17089276015758514,-0.06274495273828506,-0.14603962004184723,0.007767269853502512,-0.18883967399597168,0.0,0.10749112814664841,-0.0311493631452322,0.10749032348394394,0.06013382598757744,0.0022506648674607277,-0.005106695462018251,0.0,-0.1354990452528,0.030910251662135124,0.0,0.11454683542251587,-0.006137378979474306,0.0980156660079956,-0.13684116303920746,0.09495306760072708,0.0,0.021764930337667465,0.07729975879192352,-0.30892622470855713,0.04343195632100105,0.08005691319704056,-0.012321368791162968,-0.02052975259721279,-0.005836427211761475,0.0,-0.01445387676358223,0.007948380894958973,0.017502788454294205,0.0,0.0,-0.01915362849831581,-0.045177094638347626,0.004198848735541105,0.17523789405822754,0.0,0.0,-0.04148010164499283,0.011898341588675976,-0.011378152295947075,0.0005556102842092514,0.0,0.027525214478373528,-0.056648705154657364,0.0,-0.13098891079425812,0.021918315440416336,0.008160299621522427,0.29093119502067566,0.06440648436546326
4.442281246185303,0.014841451309621334,-0.0038979314267635345,0.06555542349815369,-0.09723658114671707,-0.023697160184383392,0.0011022503022104502,0.43420013785362244,-0.17089271545410156,-0.06274492293596268,-0.14603962004184723,0.007767498958855867,-0.18883967399597168,0.0,0.10749112814664841,-0.0311493631452322,0.10749032348394394,0.06013382598757744,0.002250661375001073,-0.005106696393340826,0.0,-0.1354990452528,0.030910251662135124,0.0,0.11454683542251587,-0.006137378979474306,0.0980156660079956,-0.13684116303920746,0.09495308250188828,0.0,0.021764930337667465,0.07729973644018173,-0.3089263439178467,0.043432220816612244,0.08005698770284653,-0.012321291491389275,-0.02052975259721279,-0.005836427211761475,0.0,-0.01445387676358223,0.007948385551571846,0.017502784729003906,0.0,0.0,-0.01915362849831581,-0.04517708346247673,0.004198847804218531,0.17523765563964844,0.0,0.0,-0.04148010164499283,0.011898341588675976,-0.011378121562302113,0.0005555953830480576,0.0,0.027525214478373528,-0.05664866790175438,0.0,-0.13098891079425812,0.021918797865509987,0.008160299621522427,0.29093119502067566,0.06440648436546326
4.442281246185303,0.014841442927718163,-0.0038978466764092445,0.06555549800395966,-0.09723667800426483,-0.02369716577231884,0.0011026686988770962,0.43420013785362244,-0.17089270055294037,-0.0627448707818985,-0.14603962004184723,0.00776764377951622,-0.18883965909481049,0.0,0.10749112814664841,-0.0311493631452322,0.10749032348394394,0.06013382598757744,0.0022506588138639927,-0.005106697324663401,0.0,-0.1354990452528,0.030910251662135124,0.0,0.11454683542251587,-0.006137378979474306,0.0980156660079956,-0.13684116303920746,0.09495308995246887,0.0,0.021764930337667465,0.07729964703321457,-0.3089263439178467,0.04343203827738762,0.08005703240633011,-0.012321211397647858,-0.02052975259721279,-0.005836427211761475,0.0,-0.01445387676358223,0.007948402315378189,0.017502782866358757,0.0,0.0,-0.01915362849831581,-0.045177072286605835,0.004198845941573381,0.17523729801177979,0.0,0.0,-0.04148010164499283,0.011898341588675976,-0.011378075927495956,0.0005555814714170992,0.0,0.027525214478373528,-0.05664879083633423,0.0,-0.13098891079425812,0.021919211372733116,0.008160299621522427,0.29093119502067566,0.06440648436546326
4.442281246185303,0.014841376803815365,-0.0038977714721113443,0.06555575877428055,-0.09723681956529617,-0.023697175085544586,0.001102104433812201,0.43420013785362244,-0.1708926111459732,-0.06274484097957611,-0.14603962004184723,0.007767840754240751,-0.18883965909481049,0.0,0.10749112814664841,-0.03114936128258705,0.10749032348394394,0.06013382598757744,0.0022506583482027054,-0.005106698255985975,0.0,-0.1354990452528,0.030910251662135124,0.0,0.11454683542251587,-0.006137378979474306,0.0980156660079956,-0.13684116303920746,0.09495308995246887,0.0,0.021764930337667465,0.07729955017566681,-0.30892637372016907,0.043432362377643585,0.0800570696592331,-0.01232112292200327,-0.02052975259721279,-0.005836427211761475,0.0,-0.01445387676358223,0.007948379032313824,0.017502782866358757,0.0,0.0,-0.01915362849831581,-0.04517706111073494,0.004198845010250807,0.17523685097694397,0.0,0.0,-0.04148010164499283,0.011898341588675976,-0.011378087103366852,0.0005556012620218098,0.0,0.027525214478373528,-0.05664818361401558,0.0,-0.13098891079425812,0.0219199787825346,0.008160299621522427,0.29093119502067566,0.06440648436546326
4.442281246185303,0.014841361902654171,-0.0038976757787168026,0.06555581092834473,-0.09723694622516632,-0.023697176948189735,0.0011021738173440099,0.43420013785362244,-0.17089250683784485,-0.06274479627609253,-0.14603962004184723,0.007768021430820227,-0.18883965909481049,0.0,0.10749112814664841,-0.031149359419941902,0.10749032348394394,0.06013382598757744,0.002250657184049487,-0.005106698721647263,0.0,-0.1354990452528,0.030910251662135124,0.0,0.11454683542251587,-0.006137378979474306,0.0980156660079956,-0.13684116303920746,0.09495309740304947,0.0,0.021764930337667465,0.07729953527450562,-0.30892640352249146,0.043431833386421204,0.08005707710981369,-0.012321039102971554,-0.02052975259721279,-0.005836427211761475,0.0,-0.01445387676358223,0.007948337122797966,0.017502784729003906,0.0,0.0,-0.01915362849831581,-0.04517705366015434,0.004198844078928232,0.17523635923862457,0.0,0.0,-0.04148010164499283,0.011898341588675976,-0.011378113180398941,0.0005555976531468332,0.0,0.027525214478373528,-0.05664832517504692,0.0,-0.13098891079425812,0.021920455619692802,0.008160299621522427,0.29093119502067566,0.06440648436546326
4.442281246185303,0.014841326512396336,-0.003897560527548194,0.0655558779835701,-0.09723706543445587,-0.023697175085544586,0.0011025392450392246,0.43420013785362244,-0.17089249193668365,-0.06274471431970596,-0.14603962004184723,0.007768137846142054,-0.1888396441936493,0.0,0.10749112814664841,-0.031149355694651604,0.10749033093452454,0.06013382598757744,0.002250662771984935,-0.005106699652969837,0.0,-0.1354990452528,0.030910251662135124,0.0,0.11454683542251587,-0.006137378979474306,0.0980156660079956,-0.13684116303920746,0.09495311230421066,0.0,0.021764930337667465,0.07729952782392502,-0.30892643332481384,0.04343134164810181,0.08005710691213608,-0.012320885434746742,-0.02052975259721279,-0.005836427211761475,0.0,-0.01445387676358223,0.007948330603539944,0.017502786591649055,0.0,0.0,-0.01915362849831581,-0.04517704248428345,0.004198843147605658,0.17523600161075592,0.0,0.0,-0.04148010164499283,0.011898341588675976,-0.011378082446753979,0.0005555921816267073,0.0,0.027525214478373528,-0.056648530066013336,0.0,-0.13098891079425812,0.02192096598446369,0.008160299621522427,0.29093119502067566,0.06440648436546326
4.442281246185303,0.014841323718428612,-0.0038974089547991753,0.0655558630824089,-0.09723716974258423,-0.023697173222899437,0.0011033075861632824,0.43420013785362244,-0.17089249193668365,-0.06274464726448059,-0.14603962004184723,0.0077682677656412125,-0.1888396292924881,0.0,0.10749112814664841,-0.031149355694651604,0.10749033838510513,0.06013382598757744,0.002250657184049487,-0.005106700584292412,0.0,-0.1354990452528,0.030910251662135124,0.0,0.11454683542251587,-0.006137378979474306,0.0980156660079956,-0.13684116303920746,0.09495311975479126,0.0,0.021764930337667465,0.07729954272508621,-0.30892643332481384,0.04343049228191376,0.08005710691213608,-0.01232073176652193,-0.02052975259721279,-0.005836427211761475,0.0,-0.01445387676358223,0.007948319427669048,0.017502786591649055,0.0,0.0,-0.01915362849831581,-0.04517703875899315,0.004198841284960508,0.17523562908172607,0.0,0.0,-0.04148010164499283,0.011898341588675976,-0.011378061026334763,0.0005556003889068961,0.0,0.027525214478373528,-0.05664876103401184,0.0,-0.13098891079425812,0.021921353414654732,0.008160299621522427,0.29093119502067566,0.06440648436546326
4.442281246185303,0.014841260388493538,-0.0038973302580416203,0.06555606424808502,-0.09723737835884094,-0.02369716204702854,0.0011029246961697936,0.43420013785362244,-0.1708923578262329,-0.06274460256099701,-0.14603962004184723,0.007768455892801285,-0.1888396292924881,0.0,0.10749112814664841,-0.031149351969361305,0.10749034583568573,0.06013382598757744,0.0022506527602672577,-0.005106701515614986,0.0,-0.1354990452528,0.030910251662135124,0.0,0.11454683542251587,-0.006137378979474306,0.0980156660079956,-0.13684116303920746,0.09495312720537186,0.0,0.021764930337667465,0.07729951292276382,-0.30892643332481384,0.04343026503920555,0.08005710691213608,-0.012320642359554768,-0.02052975259721279,-0.005836427211761475,0.0,-0.01445387676358223,0.007948292419314384,0.017502788454294205,0.0,0.0,-0.01915362849831581,-0.045177020132541656,0.004198839887976646,0.17523513734340668,0.0,0.0,-0.04148010164499283,0.011898341588675976,-0.011378061957657337,0.0005556085961870849,0.0,0.027525214478373528,-0.056649018079042435,0.0,-0.13098891079425812,0.021921750158071518,0.008160299621522427,0.29093119502067566,0.06440648436546326
4.442281246185303,0.014841224998235703,-0.0038972331676632166,0.06555619835853577,-0.09723741561174393,-0.02369716763496399,0.0011036726646125317,0.43420013785362244,-0.17089234292507172,-0.06274453550577164,-0.14603962004184723,0.007768538780510426,-0.1888396143913269,0.0,0.10749112814664841,-0.031149348244071007,0.10749035328626633,0.06013382598757744,0.00225064461119473,-0.005106702446937561,0.0,-0.1354990452528,0.030910251662135124,0.0,0.11454683542251587,-0.006137378979474306,0.0980156660079956,-0.13684116303920746,0.09495313465595245,0.0,0.021764930337667465,0.07729950547218323,-0.30892640352249146,0.043429408222436905,0.08005710691213608,-0.012320566922426224,-0.02052975259721279,-0.005836427211761475,0.0,-0.01445387676358223,0.007948302663862705,0.017502790316939354,0.0,0.0,-0.01915362849831581,-0.04517700895667076,0.0041988384909927845,0.17523466050624847,0.0,0.0,-0.04148010164499283,0.011898341588675976,-0.011378029361367226,0.000555614591576159,0.0,0.027525214478373528,-0.05664927884936333,0.0,-0.13098891079425812,0.021922225132584572,0.008160299621522427,0.29093119502067566,0.06440648436546326
4.442281246185303,0.01484114583581686,-0.0038971994072198868,0.06555639207363129,-0.0972374901175499,-0.023697160184383392,0.0011035033967345953,0.43420013785362244,-0.17089226841926575,-0.06274449825286865,-0.14603962004184723,0.007768670096993446,-0.1888395994901657,0.0,0.10749112814664841,-0.03114934079349041,0.10749036073684692,0.06013382598757744,0.0022506434470415115,-0.005106703378260136,0.0,-0.1354990452528,0.030910251662135124,0.0,0.11454683542251587,-0.006137378979474306,0.0980156660079956,-0.13684116303920746,0.09495314955711365,0.0,0.021764930337667465,0.07729951292276382,-0.30892643332481384,0.04342915490269661,0.08005712926387787,-0.012320438399910927,-0.02052975259721279,-0.005836427211761475,0.0,-0.01445387676358223,0.007948276586830616,0.017502792179584503,0.0,0.0,-0.01915362849831581,-0.04517699033021927,0.004198837094008923,0.17523455619812012,0.0,0.0,-0.04148010164499283,0.011898341588675976,-0.011378029361367226,0.0005556289688684046,0.0,0.027525214478373528,-0.05664953216910362,0.0,-0.13098891079425812,0.021922582760453224,0.008160299621522427,0.29093119502067566,0.06440648436546326
4.442281246185303,0.014841052703559399,-0.0038971449248492718,0.06555664539337158,-0.09723763912916183,-0.023697156459093094,0.0011026981519535184,0.43420013785362244,-0.1708921194076538,-0.06274447590112686,-0.14603962004184723,0.007768872193992138,-0.1888395994901657,0.0,0.10749112814664841,-0.031149327754974365,0.10749036818742752,0.06013382598757744,0.0022506434470415115,-0.005106703843921423,0.0,-0.1354990452528,0.030910251662135124,0.0,0.11454683542251587,-0.006137378979474306,0.0980156660079956,-0.13684116303920746,0.09495314955711365,0.0,0.021764930337667465,0.07729946076869965,-0.30892643332481384,0.0434291772544384,0.08005711436271667,-0.012320388108491898,-0.02052975259721279,-0.005836427211761475,0.0,-0.01445387676358223,0.007948282174766064,0.017502792179584503,0.0,0.0,-0.01915362849831581,-0.04517698287963867,0.004198836162686348,0.17523430287837982,0.0,0.0,-0.04148010164499283,0.011898341588675976,-0.011378002353012562,0.0005556434043683112,0.0,0.027525214478373528,-0.0566498301923275,0.0,-0.13098891079425812,0.02192293480038643,0.008160299621522427,0.29093119502067566,0.06440648436546326
4.442281246185303,0.014841020107269287,-0.0038970597088336945,0.06555686891078949,-0.09723767638206482,-0.023697160184383392,0.00110311817843467,0.43420013785362244,-0.1708921194076538,-0.06274441629648209,-0.14603962004184723,0.007768954150378704,-0.18883958458900452,0.0,0.10749112814664841,-0.031149322167038918,0.10749037563800812,0.06013382598757744,0.002250653225928545,-0.005106704775243998,0.0,-0.1354990452528,0.030910251662135124,0.0,0.11454683542251587,-0.006137378979474306,0.0980156660079956,-0.13684116303920746,0.09495316445827484,0.0,0.021764930337667465,0.07729942351579666,-0.30892640352249146,0.04342867434024811,0.08005712181329727,-0.012320281937718391,-0.02052975259721279,-0.005836427211761475,0.0,-0.01445387676358223,0.007948322221636772,0.017502790316939354,0.0,0.0,-0.01915362849831581,-0.045176975429058075,0.004198835231363773,0.17523400485515594,0.0,0.0,-0.04148010164499283,0.011898341588675976,-0.01137795951217413,0.0005556566757149994,0.0,0.027525214478373528,-0.05664981156587601,0.0,-0.13098891079425812,0.021923286840319633,0.008160299621522427,0.29093119502067566,0.06440648436546326
4.442281246185303,0.014840902760624886,-0.0038970629684627056,0.06555726379156113,-0.09723783284425735,-0.023697154596447945,0.0011020161909982562,0.43420013785362244,-0.17089197039604187,-0.06274440884590149,-0.14603962004184723,0.007769113406538963,-0.1888395994901657,0.0,0.10749112814664841,-0.031149309128522873,0.10749037563800812,0.06013382598757744,0.0022506737150251865,-0.005106705706566572,0.0,-0.1354990452528,0.030910251662135124,0.0,0.11454683542251587,-0.006137378979474306,0.0980156660079956,-0.13684116303920746,0.09495317190885544,0.0,0.021764930337667465,0.07729939371347427,-0.30892640352249146,0.043428726494312286,0.08005711436271667,-0.012320239096879959,-0.02052975259721279,-0.005836427211761475,0.0,-0.01445387676358223,0.007948326878249645,0.017502792179584503,0.0,0.0,-0.01915362849831581,-0.04517696425318718,0.004198836162686348,0.1752341240644455,0.0,0.0,-0.04148010164499283,0.011898341588675976,-0.011377926915884018,0.0005556601099669933,0.0,0.027525214478373528,-0.056649770587682724,0.0,-0.13098891079425812,0.021923553198575974,0.008160299621522427,0.29093119502067566,0.06440648436546326
4.442281246185303,0.01484084501862526,-0.0038969116285443306,0.06555759161710739,-0.09723793715238571,-0.023697156459093094,0.0011020881356671453,0.43420013785362244,-0.17089197039604187,-0.06274434924125671,-0.14603962004184723,0.0077692484483122826,-0.1888395994901657,0.0,0.10749112814664841,-0.031149299815297127,0.10749038308858871,0.06013382598757744,0.002250686287879944,-0.005106706637889147,0.0,-0.1354990452528,0.030910251662135124,0.0,0.11454683542251587,-0.006137378979474306,0.0980156660079956,-0.13684116303920746,0.09495315700769424,0.0,0.021764930337667465,0.07729928940534592,-0.3089262843132019,0.04342823848128319,0.08005709201097488,-0.012320135720074177,-0.02052975259721279,-0.005836427211761475,0.0,-0.01445387676358223,0.007948310114443302,0.017502794042229652,0.0,0.0,-0.01915362849831581,-0.04517693445086479,0.004198835697025061,0.1752336472272873,0.0,0.0,-0.04148010164499283,0.011898341588675976,-0.011377895250916481,0.0005556553951464593,0.0,0.027525214478373528,-0.056649867445230484,0.0,-0.13098891079425812,0.021923812106251717,0.008160299621522427,0.29093119502067566,0.06440648436546326
4.442281246185303,0.014840775169432163,-0.0038968294393271208,0.06555797159671783,-0.09723813086748123,-0.02369716204702854,0.0011020120000466704,0.43420013785362244,-0.17089198529720306,-0.06274431198835373,-0.14603962004184723,0.0077693285420536995,-0.1888395994901657,0.0,0.10749112814664841,-0.03114929422736168,0.10749039053916931,0.06013382598757744,0.0022507081739604473,-0.005106708034873009,0.0,-0.1354990452528,0.030910251662135124,0.0,0.11454683542251587,-0.006137378979474306,0.0980156660079956,-0.13684116303920746,0.09495317190885544,0.0,0.021764930337667465,0.07729928195476532,-0.3089262545108795,0.04342784732580185,0.0800570622086525,-0.01232003141194582,-0.02052975259721279,-0.005836427211761475,0.0,-0.01445387676358223,0.00794835016131401,0.017502792179584503,0.0,0.0,-0.01915362849831581,-0.045176912099123,0.004198835697025061,0.17523345351219177,0.0,0.0,-0.04148010164499283,0.011898341588675976,-0.011377833783626556,0.0005556635442189872,0.0,0.027525214478373528,-0.05664989724755287,0.0,-0.13098891079425812,0.021924393251538277,0.008160299621522427,0.29093119502067566,0.06440648436546326
4.442281246185303,0.014840628951787949,-0.003896885085850954,0.0655585527420044,-0.09723839163780212,-0.023697152733802795,0.0011011596070602536,0.43420013785362244,-0.1708919107913971,-0.06274428963661194,-0.14603962004184723,0.007769476156681776,-0.1888396143913269,0.0,0.10749112814664841,-0.031149275600910187,0.10749039053916931,0.06013382598757744,0.0022507321555167437,-0.005106708966195583,0.0,-0.1354990452528,0.030910251662135124,0.0,0.11454683542251587,-0.006137378979474306,0.0980156660079956,-0.13684116303920746,0.09495318681001663,0.0,0.021764930337667465,0.07729937881231308,-0.3089263141155243,0.04342781752347946,0.08005703240633011,-0.01231998112052679,-0.02052975259721279,-0.005836427211761475,0.0,-0.01445387676358223,0.007948346436023712,0.017502792179584503,0.0,0.0,-0.01915362849831581,-0.045176900923252106,0.004198833368718624,0.17523351311683655,0.0,0.0,-0.04148010164499283,0.011898341588675976,-0.011377786286175251,0.0005556301912292838,0.0,0.027525214478373528,-0.05665004998445511,0.0,-0.13098891079425812,0.02192491479218006,0.008160299621522427,0.29093119502067566,0.06440648436546326
4.442281246185303,0.014840456657111645,-0.0038969360757619143,0.06555908918380737,-0.09723860770463943,-0.02369714342057705,0.0011002573883160949,0.43420013785362244,-0.17089185118675232,-0.06274426728487015,-0.14603963494300842,0.007769567891955376,-0.1888396292924881,0.0,0.10749112814664841,-0.03114926815032959,0.10749039798974991,0.06013382598757744,0.0022507687099277973,-0.005106710363179445,0.0,-0.1354990452528,0.030910251662135124,0.0,0.11454683542251587,-0.006137378979474306,0.0980156660079956,-0.13684116303920746,0.09495318681001663,0.0,0.021764930337667465,0.07729941606521606,-0.3089263439178467,0.043427612632513046,0.08005700260400772,-0.012319912202656269,-0.02052975259721279,-0.005836427211761475,0.0,-0.01445387676358223,0.007948370650410652,0.017502790316939354,0.0,0.0,-0.01915362849831581,-0.04517688974738121,0.004198831506073475,0.175233393907547,0.0,0.0,-0.04148010164499283,0.011898341588675976,-0.01137770339846611,0.000555596430785954,0.0,0.027525214478373528,-0.056650176644325256,0.0,-0.13098891079425812,0.021925266832113266,0.008160299621522427,0.29093119502067566,0.06440648436546326
4.442281246185303,0.01484039705246687,-0.003896835958585143,0.06555943936109543,-0.0972386822104454,-0.023697154596447945,0.0011007774155586958,0.43420013785362244,-0.1708919107913971,-0.06274417042732239,-0.14603963494300842,0.007769586984068155,-0.1888396292924881,0.0,0.10749112814664841,-0.031149258837103844,0.1074904054403305,0.06013382598757744,0.0022507861722260714,-0.00510671129450202,0.0,-0.1354990452528,0.030910251662135124,0.0,0.11454683542251587,-0.006137378979474306,0.0980156660079956,-0.13684116303920746,0.09495317935943604,0.0,0.021764930337667465,0.07729934900999069,-0.30892622470855713,0.04342687502503395,0.08005695790052414,-0.01231984980404377,-0.02052975259721279,-0.005836427211761475,0.0,-0.01445387676358223,0.007948379032313824,0.017502790316939354,0.0,0.0,-0.01915362849831581,-0.04517686739563942,0.004198830109089613,0.17523305118083954,0.0,0.0,-0.04148010164499283,0.011898341588675976,-0.01137765683233738,0.0005555800162255764,0.0,0.027525214478373528,-0.056650254875421524,0.0,-0.13098891079425812,0.0219256691634655,0.008160299621522427,0.29093119502067566,0.06440648436546326
4.442281246185303,0.014840371906757355,-0.0038967435248196125,0.06555978208780289,-0.09723882377147675,-0.023697150871157646,0.001101340283639729,0.43420013785362244,-0.17089200019836426,-0.06274408102035522,-0.14603963494300842,0.007769654504954815,-0.1888396143913269,0.0,0.10749112814664841,-0.03114924393594265,0.1074904054403305,0.06013382598757744,0.002250803168863058,-0.0051067122258245945,0.0,-0.1354990452528,0.030910251662135124,0.0,0.11454683542251587,-0.006137378979474306,0.0980156660079956,-0.13684116303920746,0.09495316445827484,0.0,0.021764930337667465,0.0772993341088295,-0.3089261054992676,0.04342583939433098,0.08005691319704056,-0.01231979951262474,-0.02052975259721279,-0.005836427211761475,0.0,-0.01445387676358223,0.007948363199830055,0.017502790316939354,0.0,0.0,-0.01915362849831581,-0.04517685994505882,0.004198829643428326,0.17523285746574402,0.0,0.0,-0.04148010164499283,0.011898341588675976,-0.01137762051075697,0.0005555491079576313,0.0,0.027525214478373528,-0.056650303304195404,0.0,-0.13098891079425812,0.02192613296210766,0.008160299621522427,0.29093119502067566,0.06440648436546326
4.442281246185303,0.014840218238532543,-0.0038966797292232513,0.06556027382612228,-0.09723908454179764,-0.023697147145867348,0.0011005273554474115,0.43420013785362244,-0.17089180648326874,-0.06274405121803284,-0.14603963494300842,0.007769858464598656,-0.1888396292924881,0.0,0.10749112814664841,-0.031149227172136307,0.1074904054403305,0.06013382598757744,0.0022508185356855392,-0.005106712691485882,0.0,-0.1354990452528,0.030910251662135124,0.0,0.11454683542251587,-0.006137378979474306,0.0980156660079956,-0.13684116303920746,0.09495313465595245,0.0,0.021764930337667465,0.07729918509721756,-0.308925986289978,0.04342573881149292,0.08005686849355698,-0.012319736182689667,-0.02052975259721279,-0.005836427211761475,0.0,-0.01445387676358223,0.007948349229991436,0.017502792179584503,0.0,0.0,-0.01915362849831581,-0.045176826417446136,0.004198825918138027,0.1752326488494873,0.0,0.0,-0.04148010164499283,0.011898341588675976,-0.01137759443372488,0.0005555440438911319,0.0,0.027525214478373528,-0.05665045231580734,0.0,-0.13098891079425812,0.021926747635006905,0.008160299621522427,0.29093119502067566,0.06440648436546326
4.442281246185303,0.014840057119727135,-0.003896684618666768,0.06556084007024765,-0.09723901748657227,-0.02369716949760914,0.0011002396931871772,0.43420013785362244,-0.1708916425704956,-0.06274395436048508,-0.14603963494300842,0.007769966498017311,-0.1888396292924881,0.0,0.10749112814664841,-0.031149206683039665,0.1074904128909111,0.06013382598757744,0.0022508427500724792,-0.005106713622808456,0.0,-0.1354990452528,0.030910251662135124,0.0,0.11454683542251587,-0.006137378979474306,0.0980156660079956,-0.13684116303920746,0.09495311975479126,0.0,0.021764930337667465,0.07729921489953995,-0.308925986289978,0.04342545568943024,0.08005687594413757,-0.012319659814238548,-0.02052975259721279,-0.005836427211761475,0.0,-0.01445387676358223,0.007948334328830242,0.017502794042229652,0.0,0.0,-0.01915362849831581,-0.04517684876918793,0.004198820795863867,0.17523296177387238,0.0,0.0,-0.04148010164499283,0.011898341588675976,-0.011377550661563873,0.0005554750678129494,0.0,0.027525214478373528,-0.056650880724191666,0.0,-0.13098891079425812,0.0219273641705513,0.008160299621522427,0.29093119502067566,0.06440648436546326
4.442281246185303,0.014839938841760159,-0.0038966124411672354,0.06556130200624466,-0.09723895788192749,-0.02369719184935093,0.0011009436566382647,0.43420013785362244,-0.17089176177978516,-0.06274385750293732,-0.14603963494300842,0.007770049385726452,-0.1888396143913269,0.0,0.10749112814664841,-0.031149186193943024,0.1074904277920723,0.06013382598757744,0.0022508734837174416,-0.005106715019792318,0.0,-0.1354990452528,0.030910251662135124,0.0,0.11454683542251587,-0.006137378979474306,0.0980156660079956,-0.13684116303920746,0.09495311230421066,0.0,0.021764930337667465,0.07729922980070114,-0.308925986289978,0.043425071984529495,0.08005689829587936,-0.0123195331543684,-0.02052975259721279,-0.005836427211761475,0.0,-0.01445387676358223,0.007948377169668674,0.017502790316939354,0.0,0.0,-0.01915362849831581,-0.04517684131860733,0.004198817070573568,0.17523297667503357,0.0,0.0,-0.04148010164499283,0.011898341588675976,-0.011377470567822456,0.0005554337403737009,0.0,0.027525214478373528,-0.05665118247270584,0.0,-0.13098891079425812,0.021927792578935623,0.008160299621522427,0.29093119502067566,0.06440648436546326
4.442281246185303,0.014839786104857922,-0.003896628972142935,0.06556172668933868,-0.0972389504313469,-0.023697199299931526,0.0011002322426065803,0.43420013785362244,-0.170891672372818,-0.06274382025003433,-0.14603963494300842,0.007770191412419081,-0.1888396292924881,0.0,0.10749112814664841,-0.031149154528975487,0.1074904277920723,0.06013382598757744,0.002250911667943001,-0.00510671641677618,0.0,-0.1354990452528,0.030910251662135124,0.0,0.11454683542251587,-0.006137378979474306,0.0980156660079956,-0.13684116303920746,0.09495308995246887,0.0,0.021764930337667465,0.07729925960302353,-0.30892595648765564,0.043424997478723526,0.08005684614181519,-0.012319430708885193,-0.02052975259721279,-0.005836427211761475,0.0,-0.01445387676358223,0.00794833991676569,0.017502792179584503,0.0,0.0,-0.01915362849831581,-0.045176804065704346,0.004198815207928419,0.17523273825645447,0.0,0.0,-0.04148010164499283,0.011898341588675976,-0.011377464048564434,0.0005553927039727569,0.0,0.027525214478373528,-0.056651242077350616,0.0,-0.13098891079425812,0.021928180009126663,0.008160299621522427,0.29093119502067566,0.06440648436546326
4.442281246185303,0.014839710667729378,-0.0038965754210948944,0.0655621662735939,-0.09723884612321854,-0.023697230964899063,0.001100935973227024,0.43420013785362244,-0.17089177668094635,-0.06274372339248657,-0.14603963494300842,0.007770280819386244,-0.1888396143913269,0.0,0.10749112814664841,-0.031149117276072502,0.1074904277920723,0.06013382598757744,0.002250924240797758,-0.005106717348098755,0.0,-0.1354990452528,0.030910251662135124,0.0,0.11454683542251587,-0.006137378979474306,0.0980156660079956,-0.13684116303920746,0.09495307505130768,0.0,0.021764930337667465,0.07729914039373398,-0.3089257776737213,0.04342455789446831,0.08005684614181519,-0.012319378554821014,-0.02052975259721279,-0.005836427211761475,0.0,-0.01445387676358223,0.007948325015604496,0.017502792179584503,0.0,0.0,-0.01915362849831581,-0.04517676308751106,0.004198816139250994,0.17523255944252014,0.0,0.0,-0.04148010164499283,0.011898341588675976,-0.011377403512597084,0.0005553344381041825,0.0,0.027525214478373528,-0.056651413440704346,0.0,-0.13098891079425812,0.021928783506155014,0.008160299621522427,0.29093119502067566,0.06440648436546326
4.442281246185303,0.014839504845440388,-0.003896663896739483,0.06556261330842972,-0.09723883122205734,-0.023697247728705406,0.0011000315425917506,0.43420013785362244,-0.17089176177978516,-0.06274370104074478,-0.14603963494300842,0.007770434021949768,-0.1888396143913269,0.0,0.10749112814664841,-0.031149068847298622,0.1074904352426529,0.06013382598757744,0.0022509500849992037,-0.005106719210743904,0.0,-0.1354990452528,0.030910251662135124,0.0,0.11454683542251587,-0.006137378979474306,0.0980156660079956,-0.13684116303920746,0.09495306760072708,0.0,0.021764930337667465,0.07729926705360413,-0.3089258670806885,0.04342477396130562,0.08005687594413757,-0.012319388799369335,-0.02052975259721279,-0.005836427211761475,0.0,-0.01445387676358223,0.007948304526507854,0.017502792179584503,0.0,0.0,-0.01915362849831581,-0.04517672210931778,0.004198811016976833,0.17523252964019775,0.0,0.0,-0.04148010164499283,0.011898341588675976,-0.011377316899597645,0.0005552776856347919,0.0,0.027525214478373528,-0.05665183067321777,0.0,-0.13098891079425812,0.021929392591118813,0.008160299621522427,0.29093119502067566,0.06440648436546326
4.442281246185303,0.01483938004821539,-0.0038966231513768435,0.06556323915719986,-0.09723880141973495,-0.023697275668382645,0.001099948538467288,0.43420013785362244,-0.1708919107913971,-0.06274360418319702,-0.14603963494300842,0.0077706146985292435,-0.1888396292924881,0.0,0.10749112814664841,-0.031149039044976234,0.10749044269323349,0.06013382598757744,0.002250944497063756,-0.005106721539050341,0.0,-0.1354990452528,0.030910251662135124,0.0,0.11454683542251587,-0.006137378979474306,0.0980156660079956,-0.13684116303920746,0.09495306015014648,0.0,0.021764930337667465,0.07729919999837875,-0.3089258372783661,0.04342511668801308,0.08005690574645996,-0.012319295667111874,-0.02052975259721279,-0.005836427211761475,0.0,-0.01445387676358223,0.00794831570237875,0.017502790316939354,0.0,0.0,-0.01915362849831581,-0.04517669975757599,0.004198805894702673,0.1752321571111679,0.0,0.0,-0.04148010164499283,0.011898341588675976,-0.011377224698662758,0.0005552716902457178,0.0,0.027525214478373528,-0.05665237456560135,0.0,-0.13098891079425812,0.02192997746169567,0.008160299621522427,0.29093119502067566,0.06440648436546326
4.442281246185303,0.014839157462120056,-0.003896692767739296,0.06556389480829239,-0.09723887592554092,-0.023697275668382645,0.0010984470136463642,0.43420013785362244,-0.1708918809890747,-0.06274361163377762,-0.14603963494300842,0.007770825643092394,-0.18883965909481049,0.0,0.10749112814664841,-0.0311489999294281,0.10749045014381409,0.06013382598757744,0.0022509705740958452,-0.00510672340169549,0.0,-0.1354990452528,0.030910251662135124,0.0,0.11454683542251587,-0.006137378979474306,0.0980156660079956,-0.13684116303920746,0.09495305269956589,0.0,0.021764930337667465,0.07729925960302353,-0.30892592668533325,0.0434257909655571,0.08005692064762115,-0.012319264002144337,-0.02052975259721279,-0.005836427211761475,0.0,-0.01445387676358223,0.007948296144604683,0.017502790316939354,0.0,0.0,-0.01915362849831581,-0.0451766736805439,0.0041988021694123745,0.17523221671581268,0.0,0.0,-0.04148010164499283,0.011898341588675976,-0.011377159506082535,0.0005552382790483534,0.0,0.027525214478373528,-0.056652940809726715,0.0,-0.13098891079425812,0.02193056419491768,0.008160299621522427,0.29093119502067566,0.06440648436546326
4.442281246185303,0.014839019626379013,-0.003896618727594614,0.06556452065706253,-0.09723880141973495,-0.023697275668382645,0.001098267617635429,0.43420013785362244,-0.17089198529720306,-0.06274355947971344,-0.14603963494300842,0.00777099933475256,-0.18883965909481049,0.0,0.10749112814664841,-0.031148958951234818,0.10749046504497528,0.06013382598757744,0.0022509910631924868,-0.005106724798679352,0.0,-0.1354990452528,0.030910251662135124,0.0,0.11454683542251587,-0.006137378979474306,0.0980156660079956,-0.13684116303920746,0.09495306015014648,0.0,0.021764930337667465,0.0772990882396698,-0.3089258372783661,0.04342592880129814,0.08005696535110474,-0.012319079600274563,-0.02052975259721279,-0.005836427211761475,0.0,-0.01445387676358223,0.0079483138397336,0.017502788454294205,0.0,0.0,-0.01915362849831581,-0.045176610350608826,0.004198796581476927,0.17523184418678284,0.0,0.0,-0.04148010164499283,0.011898341588675976,-0.011377078481018543,0.0005551545764319599,0.0,0.027525214478373528,-0.05665350332856178,0.0,-0.13098891079425812,0.02193106897175312,0.008160299621522427,0.29093119502067566,0.06440648436546326
4.442281246185303,0.01483896840363741,-0.0038965404964983463,0.0655648484826088,-0.09723863750696182,-0.02369729056954384,0.0010991502786055207,0.43420013785362244,-0.17089223861694336,-0.06274345517158508,-0.14603962004184723,0.007771147880703211,-0.1888396441936493,0.0,0.10749112814664841,-0.031148923560976982,0.10749048739671707,0.06013382598757744,0.0022509971167892218,-0.005106726195663214,0.0,-0.1354990452528,0.030910251662135124,0.0,0.11454683542251587,-0.006137378979474306,0.0980156660079956,-0.13684116303920746,0.09495308995246887,0.0,0.021764930337667465,0.07729911059141159,-0.3089258372783661,0.04342545196413994,0.08005703240633011,-0.012319008819758892,-0.02052975259721279,-0.005836427211761475,0.0,-0.01445387676358223,0.007948311977088451,0.017502788454294205,0.0,0.0,-0.01915362849831581,-0.04517655447125435,0.004198791924864054,0.17523157596588135,0.0,0.0,-0.04148010164499283,0.011898341588675976,-0.011376998387277126,0.0005550511414185166,0.0,0.027525214478373528,-0.056653622537851334,0.0,-0.13098891079425812,0.021931977942585945,0.008160299621522427,0.29093119502067566,0.06440648436546326
4.442281246185303,0.014838784001767635,-0.003896617330610752,0.06556539982557297,-0.09723861515522003,-0.023697305470705032,0.001097779837436974,0.43420013785362244,-0.1708921492099762,-0.06274344772100449,-0.14603962004184723,0.007771404460072517,-0.18883965909481049,0.0,0.10749112814664841,-0.031148873269557953,0.10749050229787827,0.06013382598757744,0.0022510068956762552,-0.005106728058308363,0.0,-0.1354990452528,0.030910251662135124,0.0,0.11454683542251587,-0.006137378979474306,0.0980156660079956,-0.13684116303920746,0.09495309740304947,0.0,0.021764930337667465,0.07729901373386383,-0.3089258372783661,0.043425749987363815,0.0800570398569107,-0.012318958528339863,-0.02052975259721279,-0.005836427211761475,0.0,-0.01445387676358223,0.00794828962534666,0.017502790316939354,0.0,0.0,-0.01915362849831581,-0.04517648369073868,0.004198785871267319,0.17523115873336792,0.0,0.0,-0.04148010164499283,0.011898341588675976,-0.011376941576600075,0.0005549557972699404,0.0,0.027525214478373528,-0.05665353313088417,0.0,-0.13098891079425812,0.021933043375611305,0.008160299621522427,0.29093119502067566,0.06440648436546326
4.442281246185303,0.014838571660220623,-0.0038966950960457325,0.06556622684001923,-0.0972384512424469,-0.02369731478393078,0.0010976189514622092,0.43420013785362244,-0.1708921641111374,-0.06274338066577911,-0.14603962004184723,0.0077715725637972355,-0.18883965909481049,0.0,0.10749112814664841,-0.031148824840784073,0.10749052464962006,0.06013382598757744,0.0022509987466037273,-0.005106729920953512,0.0,-0.1354990452528,0.030910251662135124,0.0,0.11454683542251587,-0.006137378979474306,0.0980156660079956,-0.13684116303920746,0.09495309740304947,0.0,0.021764930337667465,0.07729911804199219,-0.30892592668533325,0.04342518001794815,0.08005708456039429,-0.012318979017436504,-0.02052975259721279,-0.005836427211761475,0.0,-0.01445387676358223,0.00794829148799181,0.017502788454294205,0.0,0.0,-0.01915362849831581,-0.04517641291022301,0.004198783077299595,0.17523115873336792,0.0,0.0,-0.04148010164499283,0.011898341588675976,-0.011376885697245598,0.0005548673216253519,0.0,0.027525214478373528,-0.05665380880236626,0.0,-0.13098891079425812,0.021934006363153458,0.008160299621522427,0.29093119502067566,0.06440648436546326
4.442281246185303,0.014838476665318012,-0.003896692767739296,0.06556668132543564,-0.09723818302154541,-0.023697348311543465,0.0010987017303705215,0.43420013785362244,-0.1708923876285553,-0.06274329870939255,-0.14603960514068604,0.007771680597215891,-0.1888396441936493,0.0,0.10749112814664841,-0.031148793175816536,0.10749054700136185,0.06013382598757744,0.0022509971167892218,-0.005106731783598661,0.0,-0.1354990452528,0.030910251662135124,0.0,0.11454683542251587,-0.006137378979474306,0.0980156660079956,-0.13684116303920746,0.09495310485363007,0.0,0.021764930337667465,0.07729919999837875,-0.308925986289978,0.04342446103692055,0.08005711436271667,-0.012318919412791729,-0.02052975259721279,-0.005836427211761475,0.0,-0.01445387676358223,0.007948328740894794,0.017502782866358757,0.0,0.0,-0.01915362849831581,-0.04517636075615883,0.004198777489364147,0.17523086071014404,0.0,0.0,-0.04148010164499283,0.011898341588675976,-0.011376780457794666,0.0005549066117964685,0.0,0.027525214478373528,-0.05665421113371849,0.0,-0.13098891079425812,0.021934939548373222,0.008160299621522427,0.29093119502067566,0.06440648436546326
4.442281246185303,0.01483827829360962,-0.003896740498021245,0.06556732207536697,-0.09723800420761108,-0.02369735948741436,0.0010985271073877811,0.43420013785362244,-0.17089255154132843,-0.06274321675300598,-0.14603959023952484,0.007771860342472792,-0.1888396441936493,0.0,0.10749112814664841,-0.031148761510849,0.10749056935310364,0.06013382598757744,0.0022510099224746227,-0.005106734111905098,0.0,-0.1354990452528,0.030910251662135124,0.0,0.11454683542251587,-0.006137378979474306,0.0980156660079956,-0.13684116303920746,0.09495309740304947,0.0,0.021764930337667465,0.07729927450418472,-0.308925986289978,0.04342351853847504,0.08005707710981369,-0.012318767607212067,-0.02052975259721279,-0.005836427211761475,0.0,-0.01445387676358223,0.007948280312120914,0.017502784729003906,0.0,0.0,-0.01915362849831581,-0.04517635703086853,0.004198773764073849,0.17523081600666046,0.0,0.0,-0.04148010164499283,0.011898341588675976,-0.011376713402569294,0.0005547462496906519,0.0,0.027525214478373528,-0.05665453523397446,0.0,-0.13098891079425812,0.021936211735010147,0.008160299621522427,0.29093119502067566,0.06440648436546326
4.442281246185303,0.014838100410997868,-0.003896750509738922,0.06556829810142517,-0.09723803400993347,-0.02369733899831772,0.0010973955504596233,0.43420013785362244,-0.17089270055294037,-0.06274314224720001,-0.14603957533836365,0.00777213042601943,-0.18883965909481049,0.0,0.10749112814664841,-0.031148698180913925,0.10749058425426483,0.06013382598757744,0.0022509885020554066,-0.005106735043227673,0.0,-0.1354990452528,0.030910251662135124,0.0,0.11454683542251587,-0.006137378979474306,0.0980156660079956,-0.13684116303920746,0.09495309740304947,0.0,0.021764930337667465,0.07729938626289368,-0.30892592668533325,0.04342316463589668,0.0800570547580719,-0.012318686582148075,-0.02052975259721279,-0.005836427211761475,0.0,-0.01445387676358223,0.007948203943669796,0.017502784729003906,0.0,0.0,-0.01915362849831581,-0.04517628625035286,0.00419877003878355,0.175230473279953,0.0,0.0,-0.04148010164499283,0.011898341588675976,-0.011376672424376011,0.0005545289604924619,0.0,0.027525214478373528,-0.05665501207113266,0.0,-0.13098891079425812,0.021937044337391853,0.008160299621522427,0.29093119502067566,0.06440648436546326
4.442281246185303,0.014837921597063541,-0.003896774025633931,0.06556891649961472,-0.09723775088787079,-0.023697329685091972,0.0010972663294523954,0.43420013785362244,-0.17089307308197021,-0.06274300068616867,-0.14603956043720245,0.007772366050630808,-0.1888396441936493,0.0,0.10749112814664841,-0.031148644164204597,0.10749062150716782,0.06013382598757744,0.0022509503178298473,-0.005106735974550247,0.0,-0.1354990452528,0.030910251662135124,0.0,0.11454683542251587,-0.006137378979474306,0.0980156660079956,-0.13684116303920746,0.09495310485363007,0.0,0.021764930337667465,0.07729927450418472,-0.3089257478713989,0.043422844260931015,0.0800570398569107,-0.012318550609052181,-0.02052975259721279,-0.005836427211761475,0.0,-0.01445387676358223,0.007948096841573715,0.017502790316939354,0.0,0.0,-0.01915362849831581,-0.045176226645708084,0.004198772367089987,0.17523080110549927,0.0,0.0,-0.04148010164499283,0.011898341588675976,-0.011376635171473026,0.0005544232553802431,0.0,0.027525214478373528,-0.05665496736764908,0.0,-0.13098891079425812,0.0219381432980299,0.008160299621522427,0.29093119502067566,0.06440648436546326
4.442281246185303,0.014837737195193768,-0.003896850161254406,0.06557009369134903,-0.09723763167858124,-0.023697303608059883,0.0010966105619445443,0.43420013785362244,-0.17089331150054932,-0.0627429336309433,-0.14603956043720245,0.007772692944854498,-0.1888396292924881,0.0,0.10749112814664841,-0.031148599460721016,0.1074906438589096,0.06013382598757744,0.002250955905765295,-0.005106737371534109,0.0,-0.1354990452528,0.030910251662135124,0.0,0.11454683542251587,-0.006137378979474306,0.0980156660079956,-0.13684116303920746,0.09495310485363007,0.0,0.021764930337667465,0.07729934900999069,-0.30892571806907654,0.04342295229434967,0.0800570398569107,-0.012318332679569721,-0.02052975259721279,-0.005836427211761475,0.0,-0.01445387676358223,0.007948088459670544,0.017502788454294205,0.0,0.0,-0.01915362849831581,-0.04517623409628868,0.004198760259896517,0.1752309948205948,0.0,0.0,-0.04148010164499283,0.011898341588675976,-0.011376556940376759,0.0005543289589695632,0.0,0.027525214478373528,-0.05665521323680878,0.0,-0.13098891079425812,0.02193891629576683,0.008160299621522427,0.29093119502067566,0.06440648436546326
4.442281246185303,0.014837699942290783,-0.003896741895005107,0.06557080894708633,-0.09723729640245438,-0.023697342723608017,0.0010977551573887467,0.43420013785362244,-0.17089371383190155,-0.06274279206991196,-0.14603954553604126,0.007772909477353096,-0.18883958458900452,0.0,0.10749112814664841,-0.03114856407046318,0.107490673661232,0.06013382598757744,0.0022509561385959387,-0.005106739234179258,0.0,-0.1354990452528,0.030910251662135124,0.0,0.11454683542251587,-0.006137378979474306,0.0980156660079956,-0.13684116303920746,0.09495311230421066,0.0,0.021764930337667465,0.07729926705360413,-0.3089255690574646,0.04342248663306236,0.08005703240633011,-0.01231814082711935,-0.02052975259721279,-0.005836427211761475,0.0,-0.01445387676358223,0.007948089390993118,0.017502788454294205,0.0,0.0,-0.01915362849831581,-0.04517623409628868,0.004198756068944931,0.17523124814033508,0.0,0.0,-0.04148010164499283,0.011898341588675976,-0.011376486159861088,0.0005542230792343616,0.0,0.027525214478373528,-0.05665562301874161,0.0,-0.13098891079425812,0.021939758211374283,0.008160299621522427,0.29093119502067566,0.06440648436546326
4.442281246185303,0.014837627299129963,-0.0038968659937381744,0.06557196378707886,-0.09723708033561707,-0.02369735948741436,0.0010975007899105549,0.43420013785362244,-0.17089414596557617,-0.0627426952123642,-0.14603954553604126,0.007773254532366991,-0.18883953988552094,0.0,0.10749112814664841,-0.031148498877882957,0.10749070346355438,0.06013382598757744,0.002250982914119959,-0.005106741562485695,0.0,-0.1354990452528,0.030910251662135124,0.0,0.11454683542251587,-0.006137378979474306,0.0980156660079956,-0.13684116303920746,0.09495311230421066,0.0,0.021764930337667465,0.07729901373386383,-0.30892542004585266,0.0434231236577034,0.08005702495574951,-0.012317794375121593,-0.02052975259721279,-0.005836427211761475,0.0,-0.01445387676358223,0.007948092184960842,0.017502788454294205,0.0,0.0,-0.01915362849831581,-0.04517615959048271,0.004198750015348196,0.1752316951751709,0.0,0.0,-0.04148010164499283,0.011898341588675976,-0.011376382783055305,0.0005540722049772739,0.0,0.027525214478373528,-0.05665566399693489,0.0,-0.13098891079425812,0.021941328421235085,0.008160299621522427,0.29093119502067566,0.06440648436546326
4.442281246185303,0.01483740471303463,-0.0038970366585999727,0.06557303667068481,-0.09723692387342453,-0.02369735762476921,0.0010964672546833754,0.43420013785362244,-0.1708943098783493,-0.06274262070655823,-0.14603953063488007,0.0077736871317029,-0.18883952498435974,0.0,0.10749112814664841,-0.03114844113588333,0.10749071091413498,0.06013382598757744,0.002250993624329567,-0.005106746219098568,0.0,-0.1354990452528,0.030910251662135124,0.0,0.11454683542251587,-0.006137378979474306,0.0980156660079956,-0.13684116303920746,0.09495311230421066,0.0,0.021764930337667465,0.07729890942573547,-0.3089253008365631,0.0434236116707325,0.08005698025226593,-0.012317527085542679,-0.02052975259721279,-0.005836427211761475,0.0,-0.01445387676358223,0.007948066107928753,0.017502790316939354,0.0,0.0,-0.01915362849831581,-0.04517611116170883,0.004198732320219278,0.17523141205310822,0.0,0.0,-0.04148010164499283,0.011898341588675976,-0.011376282200217247,0.0005539710400626063,0.0,0.027525214478373528,-0.05665619298815727,0.0,-0.13098891079425812,0.021943164989352226,0.008160299621522427,0.29093119502067566,0.06440648436546326
4.442281246185303,0.01483718492090702,-0.003897356102243066,0.06557439267635345,-0.0972367525100708,-0.023697352036833763,0.0010955050820484757,0.43420013785362244,-0.17089442908763885,-0.06274256855249405,-0.14603953063488007,0.007774106226861477,-0.18883951008319855,0.0,0.10749112814664841,-0.031148381531238556,0.10749073326587677,0.06013382598757744,0.002251037862151861,-0.005106750875711441,0.0,-0.1354990452528,0.030910251662135124,0.0,0.11454683542251587,-0.006137378979474306,0.0980156660079956,-0.13684116303920746,0.09495311230421066,0.0,0.021764930337667465,0.07729899883270264,-0.3089253306388855,0.04342414066195488,0.08005696535110474,-0.012317280285060406,-0.02052975259721279,-0.005836427211761475,0.0,-0.01445387676358223,0.007948125712573528,0.017502786591649055,0.0,0.0,-0.01915362849831581,-0.04517605900764465,0.004198722541332245,0.17523163557052612,0.0,0.0,-0.04148010164499283,0.011898341588675976,-0.011376149021089077,0.0005538344266824424,0.0,0.027525214478373528,-0.056656576693058014,0.0,-0.13098891079425812,0.021944602951407433,0.008160299621522427,0.29093119502067566,0.06440648436546326
4.442281246185303,0.01483684778213501,-0.003897607559338212,0.06557609885931015,-0.09723659604787827,-0.023697402328252792,0.0010933945886790752,0.43420013785362244,-0.17089444398880005,-0.06274248659610748,-0.14603953063488007,0.00777443777769804,-0.18883951008319855,0.0,0.10749112814664841,-0.031148316338658333,0.10749074816703796,0.06013382598757744,0.0022510665003210306,-0.0051067546010017395,0.0,-0.1354990452528,0.030910251662135124,0.0,0.11454683542251587,-0.006137378979474306,0.0980156660079956,-0.13684116303920746,0.09495309740304947,0.0,0.021764930337667465,0.0772988572716713,-0.30892521142959595,0.04342467337846756,0.08005694299936295,-0.01231712568551302,-0.02052975259721279,-0.005836427211761475,0.0,-0.01445387676358223,0.007948163896799088,0.017502784729003906,0.0,0.0,-0.01915362849831581,-0.045176006853580475,0.004198715556412935,0.17523187398910522,0.0,0.0,-0.04148010164499283,0.011898341588675976,-0.011375995352864265,0.0005537559627555311,0.0,0.027525214478373528,-0.05665704980492592,0.0,-0.13098891079425812,0.021947361528873444,0.008160299621522427,0.29093119502067566,0.06440648436546326
4.442281246185303,0.014836614020168781,-0.0038977826479822397,0.06557761877775192,-0.09723616391420364,-0.02369745448231697,0.0010927690891548991,0.43420013785362244,-0.17089472711086273,-0.06274235248565674,-0.14603951573371887,0.0077747199684381485,-0.18883946537971497,0.0,0.10749112814664841,-0.031148266047239304,0.10749080777168274,0.06013382598757744,0.0022510492708534002,-0.005106756463646889,0.0,-0.1354990452528,0.030910251662135124,0.0,0.11454683542251587,-0.006137378979474306,0.0980156660079956,-0.13684116303920746,0.09495311230421066,0.0,0.021764930337667465,0.07729874551296234,-0.3089250922203064,0.04342533275485039,0.08005692809820175,-0.012316995300352573,-0.02052975259721279,-0.005836427211761475,0.0,-0.01445387676358223,0.007948198355734348,0.017502782866358757,0.0,0.0,-0.01915362849831581,-0.04517596587538719,0.004198702517896891,0.17523261904716492,0.0,0.0,-0.04148010164499283,0.011898341588675976,-0.01137585286051035,0.0005536082317121327,0.0,0.027525214478373528,-0.05665748566389084,0.0,-0.13098891079425812,0.021949196234345436,0.008160299621522427,0.29093119502067566,0.06440648436546326
4.442281246185303,0.014836468733847141,-0.0038978741504251957,0.06557898223400116,-0.09723560512065887,-0.023697515949606895,0.0010933404555544257,0.43420013785362244,-0.17089512944221497,-0.06274218112230301,-0.14603951573371887,0.0077748727053403854,-0.1888394057750702,0.0,0.10749112814664841,-0.03114822320640087,0.10749085247516632,0.06013382598757744,0.0022510564886033535,-0.005106758326292038,0.0,-0.1354990452528,0.030910251662135124,0.0,0.11454683542251587,-0.006137378979474306,0.0980156660079956,-0.13684116303920746,0.09495310485363007,0.0,0.021764930337667465,0.07729841023683548,-0.3089248239994049,0.04342547059059143,0.08005692064762115,-0.012316829524934292,-0.02052975259721279,-0.005836427211761475,0.0,-0.01445387676358223,0.007948220707476139,0.017502781003713608,0.0,0.0,-0.01915362849831581,-0.04517592117190361,0.0041986932046711445,0.17523294687271118,0.0,0.0,-0.04148010164499283,0.011898341588675976,-0.01137573178857565,0.0005534599767997861,0.0,0.027525214478373528,-0.056657951325178146,0.0,-0.13098891079425812,0.021950846537947655,0.008160299621522427,0.29093119502067566,0.06440648436546326
4.442281246185303,0.014836274087429047,-0.0038981211837381124,0.06558074057102203,-0.09723550826311111,-0.023697521537542343,0.0010920049389824271,0.43420013785362244,-0.17089545726776123,-0.06274207681417465,-0.14603953063488007,0.007775106001645327,-0.188839390873909,0.0,0.10749112814664841,-0.031148144975304604,0.1074908897280693,0.06013382598757744,0.0022510294802486897,-0.005106761585921049,0.0,-0.1354990452528,0.030910251662135124,0.0,0.11454683542251587,-0.006137378979474306,0.0980156660079956,-0.13684116303920746,0.09495306760072708,0.0,0.021764930337667465,0.07729849964380264,-0.30892476439476013,0.04342534393072128,0.08005684614181519,-0.012316779233515263,-0.02052975259721279,-0.005836427211761475,0.0,-0.01445387676358223,0.007948188111186028,0.017502782866358757,0.0,0.0,-0.01915362849831581,-0.04517588019371033,0.004198682028800249,0.17523415386676788,0.0,0.0,-0.04148010164499283,0.011898341588675976,-0.0113756712526083,0.0005532638169825077,0.0,0.027525214478373528,-0.056656770408153534,0.0,-0.13098891079425812,0.021952416747808456,0.008160299621522427,0.29093119502067566,0.06440648436546326
4.442281246185303,0.014835973270237446,-0.003898427588865161,0.06558290123939514,-0.09723532944917679,-0.023697536438703537,0.0010901292553171515,0.43420013785362244,-0.17089557647705078,-0.06274194270372391,-0.14603953063488007,0.007775576785206795,-0.1888393759727478,0.0,0.10749112814664841,-0.031148064881563187,0.1074909046292305,0.06013382598757744,0.0022510704584419727,-0.00510676484555006,0.0,-0.1354990452528,0.030910251662135124,0.0,0.11454683542251587,-0.006137378979474306,0.0980156660079956,-0.13684116303920746,0.0949530303478241,0.0,0.021764930337667465,0.07729844748973846,-0.30892467498779297,0.04342566430568695,0.08005677908658981,-0.012316640466451645,-0.02052975259721279,-0.005836427211761475,0.0,-0.01445387676358223,0.007948111742734909,0.017502782866358757,0.0,0.0,-0.01915362849831581,-0.045175790786743164,0.0041986615397036076,0.17523466050624847,0.0,0.0,-0.04148010164499283,0.011898341588675976,-0.011375600472092628,0.0005530905327759683,0.0,0.027525214478373528,-0.05665666237473488,0.0,-0.13098891079425812,0.021953962743282318,0.008160299621522427,0.29093119502067566,0.06440648436546326
4.442281246185303,0.014835881069302559,-0.003898681839928031,0.06558418273925781,-0.09723498672246933,-0.02369754947721958,0.0010901582427322865,0.43420013785362244,-0.17089591920375824,-0.06274180114269257,-0.14603953063488007,0.007775687612593174,-0.1888393610715866,0.0,0.10749112814664841,-0.03114800713956356,0.10749095678329468,0.06013382598757744,0.002251081634312868,-0.005106769036501646,0.0,-0.1354990452528,0.030910251662135124,0.0,0.11454683542251587,-0.006137378979474306,0.0980156660079956,-0.13684116303920746,0.0949530303478241,0.0,0.021764930337667465,0.07729866355657578,-0.30892473459243774,0.04342552274465561,0.08005678653717041,-0.012316597625613213,-0.02052975259721279,-0.005836427211761475,0.0,-0.01445387676358223,0.007948133163154125,0.01750277914106846,0.0,0.0,-0.01915362849831581,-0.04517577588558197,0.004198652692139149,0.17523545026779175,0.0,0.0,-0.04148010164499283,0.011898341588675976,-0.011375462636351585,0.0005529587506316602,0.0,0.027525214478373528,-0.05665655806660652,0.0,-0.13098891079425812,0.021956492215394974,0.008160299621522427,0.29093119502067566,0.06440648436546326
4.442281246185303,0.014835720881819725,-0.003898831782862544,0.06558559834957123,-0.09723451733589172,-0.023697584867477417,0.0010913765290752053,0.43420013785362244,-0.17089632153511047,-0.06274163722991943,-0.14603953063488007,0.0077757700346410275,-0.18883931636810303,0.0,0.10749112814664841,-0.031147947534918785,0.10749101638793945,0.06013382598757744,0.0022510658018290997,-0.00510677183046937,0.0,-0.1354990452528,0.030910251662135124,0.0,0.11454683542251587,-0.006137378979474306,0.0980156660079956,-0.13684116303920746,0.0949530228972435,0.0,0.021764930337667465,0.07729865610599518,-0.3089246451854706,0.043425027281045914,0.0800568237900734,-0.012316432781517506,-0.02052975259721279,-0.005836427211761475,0.0,-0.01445387676358223,0.007948150858283043,0.01750277355313301,0.0,0.0,-0.01915362849831581,-0.04517574608325958,0.004198645241558552,0.17523609101772308,0.0,0.0,-0.04148010164499283,0.011898341588675976,-0.011375334113836288,0.000552835816051811,0.0,0.027525214478373528,-0.056656286120414734,0.0,-0.13098891079425812,0.021958131343126297,0.008160299621522427,0.29093119502067566,0.06440648436546326
4.442281246185303,0.014835410751402378,-0.003899181494489312,0.06558792293071747,-0.0972343310713768,-0.02369760163128376,0.0010896676685661077,0.43420013785362244,-0.17089636623859406,-0.06274160742759705,-0.14603953063488007,0.007776075508445501,-0.18883931636810303,0.0,0.10749112814664841,-0.031147873029112816,0.10749106109142303,0.06013382598757744,0.0022510970011353493,-0.005106774624437094,0.0,-0.1354990452528,0.030910251662135124,0.0,0.11454683542251587,-0.006137378979474306,0.0980156660079956,-0.13684116303920746,0.0949530154466629,0.0,0.021764930337667465,0.07729870826005936,-0.3089246153831482,0.043425511568784714,0.0800568088889122,-0.012316355481743813,-0.02052975259721279,-0.005836427211761475,0.0,-0.01445387676358223,0.007948128506541252,0.01750277169048786,0.0,0.0,-0.01915362849831581,-0.0451756976544857,0.0041986387223005295,0.1752370297908783,0.0,0.0,-0.04148010164499283,0.011898341588675976,-0.011375238187611103,0.0005527297616936266,0.0,0.027525214478373528,-0.05665634572505951,0.0,-0.13098891079425812,0.021959790959954262,0.008160299621522427,0.29093119502067566,0.06440648436546326
4.442281246185303,0.01483527198433876,-0.0038993130438029766,0.06558947265148163,-0.0972338393330574,-0.02369767613708973,0.001090675825253129,0.43420013785362244,-0.1708967238664627,-0.06274144351482391,-0.14603953063488007,0.007776153739541769,-0.18883928656578064,0.0,0.10749112814664841,-0.031147805973887444,0.10749109834432602,0.06013382598757744,0.002251116093248129,-0.005106777884066105,0.0,-0.1354990452528,0.030910251662135124,0.0,0.11454683542251587,-0.006137378979474306,0.0980156660079956,-0.13684116303920746,0.0949530154466629,0.0,0.021764930337667465,0.07729869335889816,-0.30892446637153625,0.043425071984529495,0.08005683124065399,-0.012316223233938217,-0.02052975259721279,-0.005836427211761475,0.0,-0.01445387676358223,0.007948130369186401,0.017502766102552414,0.0,0.0,-0.01915362849831581,-0.04517566040158272,0.004198630340397358,0.17523778975009918,0.0,0.0,-0.04148010164499283,0.011898341588675976,-0.01137514878064394,0.0005526701570488513,0.0,0.027525214478373528,-0.056656356900930405,0.0,-0.13098891079425812,0.0219612754881382,0.008160299621522427,0.29093119502067566,0.06440648436546326
4.442281246185303,0.0148350540548563,-0.0038996755611151457,0.06559155136346817,-0.09723377972841263,-0.02369770221412182,0.0010890146950259805,0.43420013785362244,-0.1708969622850418,-0.06274140626192093,-0.14603951573371887,0.00777645967900753,-0.18883930146694183,0.0,0.10749112814664841,-0.031147697940468788,0.10749112069606781,0.06013382598757744,0.002251214813441038,-0.005106780678033829,0.0,-0.1354990452528,0.030910251662135124,0.0,0.11454683542251587,-0.006137378979474306,0.0980156660079956,-0.13684116303920746,0.0949530154466629,0.0,0.021764930337667465,0.07729873061180115,-0.30892446637153625,0.04342534765601158,0.08005683869123459,-0.012316087260842323,-0.02052975259721279,-0.005836427211761475,0.0,-0.01445387676358223,0.007948184385895729,0.017502758651971817,0.0,0.0,-0.01915362849831581,-0.04517563059926033,0.004198627546429634,0.17523881793022156,0.0,0.0,-0.04148010164499283,0.011898341588675976,-0.011374997906386852,0.0005525118904188275,0.0,0.027525214478373528,-0.05665666610002518,0.0,-0.13098891079425812,0.02196338213980198,0.008160299621522427,0.29093119502067566,0.06440648436546326
4.442281246185303,0.014834756031632423,-0.0039000147953629494,0.06559403240680695,-0.09723328799009323,-0.023697786033153534,0.0010889654513448477,0.43420013785362244,-0.1708974689245224,-0.06274130940437317,-0.14603950083255768,0.0077768126502633095,-0.18883927166461945,0.0,0.10749112814664841,-0.031147612258791924,0.1074911504983902,0.06013382598757744,0.002251307712867856,-0.00510678393766284,0.0,-0.1354990452528,0.030910251662135124,0.0,0.11454683542251587,-0.006137378979474306,0.0980156660079956,-0.13684116303920746,0.09495299309492111,0.0,0.021764930337667465,0.0772988498210907,-0.30892446637153625,0.04342538118362427,0.08005672693252563,-0.012316012755036354,-0.02052975259721279,-0.005836427211761475,0.0,-0.01445387676358223,0.007948100566864014,0.017502762377262115,0.0,0.0,-0.01915362849831581,-0.045175570994615555,0.004198617301881313,0.1752394437789917,0.0,0.0,-0.04148010164499283,0.011898341588675976,-0.01137495692819357,0.0005523338913917542,0.0,0.027525214478373528,-0.05665742978453636,0.0,-0.13098891079425812,0.02196524105966091,0.008160299621522427,0.29093119502067566,0.06440648436546326
4.442281246185303,0.014834390953183174,-0.0039003761485219,0.0655965581536293,-0.09723296016454697,-0.023697899654507637,0.0010866918601095676,0.43420013785362244,-0.17089758813381195,-0.06274133175611496,-0.14603950083255768,0.007777079939842224,-0.18883925676345825,0.0,0.10749112814664841,-0.031147489324212074,0.1074911504983902,0.06013382598757744,0.002251371508464217,-0.005106787197291851,0.0,-0.1354990452528,0.030910251662135124,0.0,0.11454683542251587,-0.006137378979474306,0.0980156660079956,-0.13684116303920746,0.09495298564434052,0.0,0.021764930337667465,0.07729882001876831,-0.3089244067668915,0.04342668130993843,0.08005670458078384,-0.012315887026488781,-0.02052975259721279,-0.005836427211761475,0.0,-0.01445387676358223,0.007948074489831924,0.017502760514616966,0.0,0.0,-0.01915362849831581,-0.04517553374171257,0.004198606126010418,0.17523963749408722,0.0,0.0,-0.04148010164499283,0.011898341588675976,-0.01137483585625887,0.0005522156716324389,0.0,0.027525214478373528,-0.05665532499551773,0.0,-0.13098891079425812,0.02196785993874073,0.008160299621522427,0.29093119502067566,0.06440648436546326
4.442281246185303,0.01483401283621788,-0.003900783834978938,0.0655994564294815,-0.09723282605409622,-0.02369800955057144,0.0010862047784030437,0.43420013785362244,-0.170897975564003,-0.06274115294218063,-0.1460394710302353,0.007777333725243807,-0.18883927166461945,0.0,0.10749112814664841,-0.03114737570285797,0.10749117285013199,0.06013382598757744,0.002251465106382966,-0.005106792785227299,0.0,-0.1354990452528,0.030910251662135124,0.0,0.11454683542251587,-0.006137378979474306,0.0980156660079956,-0.13684116303920746,0.09495298564434052,0.0,0.021764930337667465,0.07729886472225189,-0.30892443656921387,0.043427567929029465,0.08005674183368683,-0.012315613217651844,-0.02052975259721279,-0.005836427211761475,0.0,-0.01445387676358223,0.007948064245283604,0.017502758651971817,0.0,0.0,-0.01915362849831581,-0.045175496488809586,0.004198594018816948,0.17523932456970215,0.0,0.0,-0.04148010164499283,0.011898341588675976,-0.011374651454389095,0.0005519452970474958,0.0,0.027525214478373528,-0.05665431171655655,0.0,-0.13098891079425812,0.021969692781567574,0.008160299621522427,0.29093119502067566,0.06440648436546326
4.442281246185303,0.014833944849669933,-0.0039009840693324804,0.06560222059488297,-0.09723243862390518,-0.0236981101334095,0.0010864470386877656,0.43420013785362244,-0.17089860141277313,-0.06274093687534332,-0.1460394412279129,0.007777738384902477,-0.18883924186229706,0.0,0.10749112814664841,-0.031147247180342674,0.10749123245477676,0.06013382598757744,0.0022515682503581047,-0.0051067969761788845,0.0,-0.1354990452528,0.030910251662135124,0.0,0.11454683542251587,-0.006137378979474306,0.0980156660079956,-0.13684116303920746,0.09495297074317932,0.0,0.021764930337667465,0.07729873061180115,-0.30892446637153625,0.04342852532863617,0.08005677908658981,-0.012315426021814346,-0.02052975259721279,-0.005836427211761475,0.0,-0.01445387676358223,0.007948064245283604,0.01750275120139122,0.0,0.0,-0.01915362849831581,-0.04517541825771332,0.004198574461042881,0.1752384454011917,0.0,0.0,-0.04148010164499283,0.011898341588675976,-0.011374445632100105,0.000551709730643779,0.0,0.027525214478373528,-0.056654222309589386,0.0,-0.13098891079425812,0.02197164110839367,0.008160299621522427,0.29093119502067566,0.06440648436546326
